tree
version=v3
num_class=1
num_tree_per_iteration=1
label_index=0
max_feature_idx=188
objective=binary sigmoid:1
feature_names=Column_0 Column_1 Column_2 Column_3 Column_4 Column_5 Column_6 Column_7 Column_8 Column_9 Column_10 Column_11 Column_12 Column_13 Column_14 Column_15 Column_16 Column_17 Column_18 Column_19 Column_20 Column_21 Column_22 Column_23 Column_24 Column_25 Column_26 Column_27 Column_28 Column_29 Column_30 Column_31 Column_32 Column_33 Column_34 Column_35 Column_36 Column_37 Column_38 Column_39 Column_40 Column_41 Column_42 Column_43 Column_44 Column_45 Column_46 Column_47 Column_48 Column_49 Column_50 Column_51 Column_52 Column_53 Column_54 Column_55 Column_56 Column_57 Column_58 Column_59 Column_60 Column_61 Column_62 Column_63 Column_64 Column_65 Column_66 Column_67 Column_68 Column_69 Column_70 Column_71 Column_72 Column_73 Column_74 Column_75 Column_76 Column_77 Column_78 Column_79 Column_80 Column_81 Column_82 Column_83 Column_84 Column_85 Column_86 Column_87 Column_88 Column_89 Column_90 Column_91 Column_92 Column_93 Column_94 Column_95 Column_96 Column_97 Column_98 Column_99 Column_100 Column_101 Column_102 Column_103 Column_104 Column_105 Column_106 Column_107 Column_108 Column_109 Column_110 Column_111 Column_112 Column_113 Column_114 Column_115 Column_116 Column_117 Column_118 Column_119 Column_120 Column_121 Column_122 Column_123 Column_124 Column_125 Column_126 Column_127 Column_128 Column_129 Column_130 Column_131 Column_132 Column_133 Column_134 Column_135 Column_136 Column_137 Column_138 Column_139 Column_140 Column_141 Column_142 Column_143 Column_144 Column_145 Column_146 Column_147 Column_148 Column_149 Column_150 Column_151 Column_152 Column_153 Column_154 Column_155 Column_156 Column_157 Column_158 Column_159 Column_160 Column_161 Column_162 Column_163 Column_164 Column_165 Column_166 Column_167 Column_168 Column_169 Column_170 Column_171 Column_172 Column_173 Column_174 Column_175 Column_176 Column_177 Column_178 Column_179 Column_180 Column_181 Column_182 Column_183 Column_184 Column_185 Column_186 Column_187 Column_188
feature_infos=[-0.38360580727787735:4.7152032397125048] [-0.073840300299386805:177.77233649827068] [-1.173260544792049:1.6712753370871589] [-0.46774753720528861:2.1379054307262164] [-0.043561007072699255:22.956310406944752] [-2.1242597789542765:0.47075221679915091] [-0.11512415913947636:8.6862740842125952] [-0.056360759413359655:17.742841125787976] [-0.024335474712727595:41.092274213043993] [-0.051388263769948643:19.459696176479707] [-0.26816472952669945:3.7290511759878409] [-0.036516730676212472:27.384707816995647] [-0.083235189582093985:12.014149364238675] [-0.20241445730383803:4.9403585757658179] [-0.1123206714476173:8.9030806806240221] [-0.72532224309497628:1.3786975506679122] [-0.47007193638781514:2.1273339729325764] [-0.1242814219234885:8.0462548989472538] [-0.084309888173117603:11.861004938669245] [-0.051676922124144709:19.350997677409588] [-0.11171123823977458:8.9516508433432804] [-0.093764770059802063:10.664986426802002] [-0.058053015614089001:17.225634007500346] [-0.018847945380643348:53.056180915453503] [-0.54838276907543171:1.8235438025997621] [-0.19013622035810518:5.2593871810251942] [-0.077258402175665819:12.943575997420401] [-0.077645086227557031:12.879115068135372] [-0.23862570878875564:4.1906632989207946] [-0.72525097808542993:1.3788330250031133] [-0.84490774313726613:1.1835611735393186] [-0.46925054596795085:2.1310577229851502] [-0.066885780836668518:14.950860818115386] [-0.80002851337266712:1.249955449443066] [-0.29221859377753606:3.4220957231807527] [-0.34442345432596561:2.9034027370667697] [-0.34423527270799842:2.904989927770306] [-0.68453565359300705:1.4608442887542472] [-1.2106306388011623:178.62582479097668] [-0.94513693210831684:2.1254165726471874] [-5.1308650537939773:4.4109213639506129] [-0.43967597940715258:2.8554956113690877] [-0.58168098405020152:2.9387024181731056] [-0.059822631920977698:16.716081654865064] [-2.2217434706076058:0.45009696809259375] [-0.35383876464909342:2.8261459735529919] [-0.026659755773873074:37.509720962260793] [-0.38594421476470309:8.1808543132808822] [-0.36199045984799483:7.672180947740415] [-0.25224454133061719:15.597028899623407] [-0.4363919368014868:4.1068193025029327] [-0.55611614039385637:4.5053750135985169] [-0.41544484957804589:20.284227517312491] [-0.29282154021516488:8.6328694618903068] [-0.26366160295294239:10.933072263878378] [-0.13615610168077696:14.397832425245705] [-94.658577846158764:76.299651608572759] [-0.065533105584897083:15.259463000796071] [-0.028291864513300152:40.095975025342021] [-0.024616091926458961:82.067801974538824] [-0.017908392480133713:90.464161982592941] [-0.013503916826780529:106.06256326368413] [-0.02719877979396338:40.097471539671218] [-0.073862663157001754:177.77108469739875] [-0.068479104688334957:178.81412385208844] [-0.068272420965726666:178.81753921399704] [-0.066852046881074129:178.92703757164335] [-0.070621540696130775:178.5446522004992] [-6.752534513502054:0.32217114114224293] [-6.3389359546976438:0.33173776740474553] [-0.4935306941917193:53.171444826716368] [-0.4935306941917193:53.171444826716368] [-0.4935306941917193:53.171444826716368] [-1.3700717634002797:0.72988877423338328] [-0.13045996998364437:7.6651864945651065] [-0.10819617174680886:9.242471187798694] [-0.086333383953488968:11.583004791503802] [-0.06853974931662897:14.590073788866079] [-0.054616778471236464:18.309391875367439] [-0.26405233946179035:3.7871279687893278] [-0.035694967461888508:28.015153706687077] [-0.052674902748346353:18.984372971270325] [-0.078794024820275158:12.691317676447484] [-0.047321167750904988:21.132191945556457] [-0.08754284250089564:11.422978411853249] [-0.1561678437723405:6.4033668893948992] [-0.080766305277699749:12.381400839888469] [-0.052106943214482171:19.19130039702786] [-0.2927551277730665:3.4158240287943475] [-0.069190469235226926:14.452857612517386] [-0.035902162497767724:27.853475401716437] [-0.095120355911779531:10.512996828223198] [-0.10791586951230973:9.2664777156424822] [-0.20897919345485735:4.7851653720542036] [-0.33929428984380966:2.9472939272285985] [-0.13626415191430183:7.3386872919365587] [-0.045069442345521633:22.187982543328847] [-0.046369419621239132:21.565937382187066] [-0.098162020994737614:10.187239319915886] [-0.075196472465823602:13.298496155580905] [-0.038687147931498508:25.848377393201805] [-0.047634228493367937:20.993307368024837] [-0.33611310668653094:2.9751889471321018] [-0.4664312873505016:2.1439385116730949] [-0.051532792919348765:19.405119407462479] [-0.12910429997013456:7.7456753975764414] [-0.066885780836668518:14.950860818115386] [-0.074797428556350798:13.369443566453905] [-0.057924574411886136:17.263829905581481] none none none none none none [-0.053096929307530766:18.833480825381162] [-1.9414423729912722:1.7268411757835738] [-1.6109312396861795:1.5620876354790529] [-1.831895606817816:1.7874105005067966] [-1.8666372668253752:1.7467230149383273] [-1.796574322773139:1.4035634661067324] [-1.7681499083169649:1.7220565767376126] [-1.5043599856044567:1.6336239429889474] [-1.6716154180357912:1.7089259354819086] [-1.61792929002638:1.7831988788334401] [-1.8189777693490612:1.4226541375017996] [-7.9825853570225869:57.161487163648772] [-0.06438454985717787:15.531676500313619] [-255.31717526483212:2.3636794261837375] [-0.13081146557864806:7.6445898345108603] [-43.106891722534527:25.879269049662579] [-0.15971090084621431:6.2613133774938809] [-0.589340779647474:54.269364857593203] [-0.11624066528018111:8.6028413343096961] [-0.26539640330451758:3.7679485763512526] [-0.088393456688054428:32.144852856344947] [-0.13490444994150302:68.182344762839548] [-0.1698768153127885:50.381524008345565] [-0.1803394183760183:25.467553915181309] [-0.190937251215855:35.46985459341419] [-0.15752285896381577:29.414330967012742] [-0.15357135408492034:51.20126695923112] [-0.32892273866175947:25.032840463822772] [-0.13594134669585289:20.839684301125665] [-0.13883652014132256:25.816871752918157] [-0.091738635810276373:49.349826148606859] [-0.17215612165888211:37.481006241034414] [-0.16259745476963677:36.8368092310767] [-0.1064715157118539:31.803348645504208] [-0.34553588839125926:26.989636027280884] [-0.11580761067952476:52.588742911571799] [-0.10142763083441197:27.877280837255647] [-0.11253173213951503:34.614555268704528] [-0.084780131632556585:48.803407889895361] [-0.12787786140583382:97.493571723735656] [-0.21590674727061288:18.063611825594819] [-0.1218751944720092:53.493690423114963] [-0.03026952868682465:252.40131453371077] [-0.061827399078754453:52.830338574838485] [-0.095684169607125891:37.50096254294165] [-0.093173646745277935:30.326896729999252] [-0.1405278343332326:66.021738730056541] [-0.17180559285752695:49.876200364428009] [-0.18602531465561231:23.138926151708482] [-0.19531701788001307:34.372872333296364] [-0.15903300067901946:29.190850355110641] [-0.14928378926752783:54.445122758715875] [-0.33280559236448143:24.776879418820275] [-0.1397833730690142:20.322988544887348] [-0.14139527365588253:25.375071427240002] [-0.025067323778161881:253.68446518774334] [-0.17691598735140612:36.563905879281847] [-0.16425505477650015:36.506790518003804] [-0.11410861973991006:34.87592245050665] [-0.47882580009267428:22.098256093625842] [-0.12230863151928473:48.111005702355662] [-0.10444278632442483:26.870933627039662] [-0.11565269339612538:32.48562354347704] [-0.034907251145306552:114.34748082901238] [-0.08898806109087086:46.96954192877083] [-0.13548294601900329:91.320361351066254] [-0.22057519142529983:30.679611996810493] [-0.12711098614510957:51.976250813066052] [-0.11610198543576425:51.700542705070632] [-0.070116748933493483:46.501875812956335] [-0.10133762397687861:35.897088873943687] [-1.9159366230169217:2.533022980939601] [-1.7559408930806806:2.0548472440077759] [-1.8624416078983741:2.3859556982056112]
tree_sizes=3382 3369 3383 3382 3402 3420 3436 3439 3449 3432 3411 3431 3423 3402 3418 3419 3422 3424 3413 3439 3428 3436 3429 3417 3424 3443 3410 3415 3430 3418 3419 3430 3405 3400 3423 3424 3402 3405 3402 3419 3411 3412 3387 3444 3442 3432 3414 3445 3392 3423 3447 3426 3424 3414 3421 3420 3434 3431 3423 3436 3404 3393 3396 3437 3430 3405 3454 3392 3435 3412 3429 3457 3426 3422 3398 3404 3409 3412 3423 3433 3399 3407 3388 3392 3429 3425 3450 3388 3404 3365 3454 3420 3431 3423 3424 3446 3413 3391 3421 3375 3429 3439 3410 3404 3395 3436 3417 3441 3428 3418 3401 3401 3437 3406 3408 3396 3423 3460 3395 3397 3414 3412 3399 3410 3420 3380 3427 3392 3427 3408 3416 3419 3415 3450 3417 3424 3417 3439 3406 3401 3408 3396 3376 3387 3421 3405 3428 3406 3409 3439 3400 3384 3395 3416 3408 3403 3394 3391 3405 3417 3396 3443 3404 3408 3412 3433 3436 3402 3440 3401 3396 3411 3398 3425 3403 3414 3408 3436 3418 3393 3433 3426 3409 3401 3431 3399 3416 3416 3438 3407 3395 3413 3420 3429 3396 3424 3395 3435 3378 3413 3404 3438 3408 3439 3419 3420 3424 3428 3377 3407 3411 3389 3414 3414 3422 3408 3397 3410 3414 3411 3422 3410 3452 3364 3405 3429 3410 3419 3394 3412 3397 3427 3408 3418 3389 3397 3411 3409 3428 3435 3380 3418 3410 3417 3392 3405 3405 3398 3421 3387 3419 3406 3448 3397 3408 3413 3379 3432 3398 3417 3380 3400 3385 3410 3402 3393 3424 3385 3448 3393 3411 3415 3407 3424 3438 3383 3409 3408 3400 3464 3431 3408 3382 3388 3429 3419 3402 3404 3396 3402 3397 3417 3401 3397 3393 3401 3412 3453 3432 3445 3427 3392 3391 3403 3402 3396 3440 3424 3412 3426 3403 3415 3407 3408 3414 3412 3409 3435 3417 3425 3401 3389 3421 3421 3428 3413 3412 3449 3436 3434 3454 3380 3412 3403 3412 3427 3427 3415 3422 3431 3389 3413 3404 3431 3410 3414 3412 3409 3398 3393 3430 3426 3410 3419 3439 3410 3419 3415 3415 3389 3402 3397 3444 3401 3400 3412 3397 3413 3401 3439 3396 3419 3414 3386 3419 3409 3411 3417 3380 3411 3411 3414 3393 3380 3429 3393 3412 3412 3395 3413 3420 3450 3377 3412 3409 3380 3383 3401 3424 3398 3381 3415 3413 3402 3373 3427 3418 3421 3412 3400 3409 3394 3393 3453 3420 3394 3416 3441 3426 3412 3376 3418 3385 3399 3428 3421 3412 3452 3423 3394 3360 3433 3392 3419 3416 3395 3413 3425 3430 3423 3421 3401 3418 3401 3429 3410 3393 3393 3384 3394 3427 3427 3422 3400 3398 3425 3393 3444 3417 3396 3395 3405 3407 3457 3413 3382 3419 3392 3405 3407 3383 3419 3408 3400 3434 3443 3422 3404 3417 3407 3383 3439 3387 3400 3388 3416 3430 3425 3396 3421 3441 3423 3408 3408 3403 3398 3426 3368 3411 3400 3420 3406 3408 3429 3405 3412 3403 3375 3410 3401 3413 3424 3432 3433 3410 3416 3408 3395 3428 3406 3423 3400 3404 3410 3402 3426 3418 3390 3391 3407 3417 3393 3420 3391 3437 3435 3420 3390 3427 3408 3419 3441 3423 3413 3404 3394 3409 3452 3398 3419 3403 3391 3401 3392 3457 3424 3425 3403 3424 3405 3387 3419 3426 3413 3389 3391 3423 3388 3401 3438 3427 3378 3395 3441 3418 3378 3385 3380 3414 3415 3427 3401 3422 3422 3451 3431 3402 3410 3390 3408 3405 3400 3424 3404 3417 3410 3403 3386 3390 3392 3429 3422 3441 3408 3415 3408 3408 3431 3391 3414 3408 3418 3434 3403 3401 3409 3397 3406 3416 3402 3387 3416 3408 3412 3421 3428 3397 3408 3391 3410 3408 3441 3409 3407 3394 3403 3405 3428 3407 3413 3412 3404 3406 3405 3428 3400 3440 3398 3391 3419 3421 3415 3414 3391 3404 3441 3398 3438 3432 3416 3414 3403 3411 3391 3383 3444 3402 3423 3408 3401 3405 3414 3401 3385 3415 3418 3423 3420 3414 3425 3410 3421 3413 3413 3414 3412 3420 3417 3404 3403 3436 3398 3423 3390 3416 3392 3444 3414 3405 3430 3439 3404 3424 3391 3398 3418 3448 3407 3414 3426 3415 3398 3397 3436 3423 3405 3410 3439 3416 3384 3371 3412 3421 3412 3393 3406 3394 3435 3416 3413 3481 3406 3401 3434 3388 3424 3421 3405 3418 3419 3434 3411 3419 3442 3419 3393 3407 3428 3383 3400 3427 3424 3387 3424 3399 3432 3394 3426 3404 3452 3407 3396 3412 3437 3401 3418 3395 3429 3428 3416 3432 3417 3415 3429 3396 3426 3427 3442 3392 3423 3410 3402 3419 3419 3412 3419 3432 3401 3416 3443 3407 3425 3421 3435 3450 3408 3417 3417 3409 3421 3404 3442 3405 3445 3420 3429 3418 3404 3413 3434 3402 3460 3410 3445 3422 3398 3425 3417 3438 3405 3416 3447 3397 3451 3433 3431 3418 3426 3403 3398 3422 3417 3421 3411 3406 3448 3407 3414 3411 3409 3442 3442 3442 3405 3419 3422 3395 3416 3408 3423 3428 3436 3434 3442 3425 3400 3432 3424 3429 3408 3420 3405 3446 3424 3419 3444 3462 3418 3439 3433 3446 3456 3428 3413 3426 3394 3423 3463 3412 3422 3419 3430 3445 3450 3447 3416 3429 3416 3415 3434 3413 3420 3462 3450 3440 3394 3394 3439 3433 3418 3412 3423 3429 3474 3443 3416 3439 3449 3469 3444 3439 3435 3449 3450 3427 3405 3447 3436 3397 3421 3441 3409 3437 3451 3468 3439 3451 3452 3436 3411 3400 3421 3421 3430 3418 3441 3427 3417 3423 3447 3437 3444 3420 3426 3407 3431 3442 3417 3448 3467 3385 3417 3392 3442 3448 3435 3427 3449 3448 3438 3448 3403 3475 3433 3425 3446 3410 3425 3475 3417 3431 3427 3454 3456 3458 3423 3425 3464 3453 3432 3446 3498 3448 3434 3457 3433 3466 3419 3421 3428 3432 3454 3455 3423 3437 3432 3454 3463 3443 3463

Tree=0
num_leaves=31
num_cat=0
split_feature=52 63 126 126 52 51 38 63 52 37 52 50 116 0 1 149 66 102 0 128 47 53 132 47 53 153 120 116 125 48
split_gain=347130 63770.5 34975.9 27587.4 27149.9 23417.2 28219.1 15833.3 12790.2 10404.8 8802.11 8671.92 8143.8 7617.6 7043.16 6827.35 6749.91 6735.2 5928.73 5589.59 5503.73 5400.47 4759.77 4675.44 4571.87 4447.6 4366.83 5259.59 4011.52 3914.6
threshold=-0.00044067605044564764 -0.026165633681128803 -0.56774921795097877 -0.58340885076844795 0.62075164019422846 1.0000000180025095e-35 0.57324513856990078 -0.058697808638587305 1.8906280250458527 1.0000000180025095e-35 -0.29537057823104412 -0.12680069103748268 1.0000000180025095e-35 -0.38288991416266399 -0.055759131749106329 1.0000000180025095e-35 0.56547269823935309 1.0000000180025095e-35 -0.37677921311914703 0.19826926764712416 -0.30568621328752371 -0.26225410527644749 -0.020251851469381691 3.0116445144358885 -0.085642258963858256 1.0000000180025095e-35 -0.77834866267499814 0.559660046627941 -1.5488417771114893 1.559224441966625
decision_type=2 2 2 2 2 2 2 2 2 2 2 2 2 2 2 2 2 2 2 2 2 2 2 2 2 2 2 2 2 2
left_child=1 5 8 -3 7 6 10 28 -2 16 12 18 17 -6 -10 25 21 -1 -9 -19 -17 29 -8 -11 -13 -14 -12 -28 -4 -5
right_child=2 3 4 9 13 -7 22 11 14 23 26 24 15 -15 -16 20 -18 19 -20 -21 -22 -23 -24 -25 -26 -27 27 -29 -30 -31
leaf_value=-1.4751351464782552 -2.2034062315168175 -3.2128680294388001 0.64599836811310585 -1.451568922370936 0.012154036255486389 -3.7774979060021483 -3.6882242495569875 -0.30673775538816139 -4.1563983814516554 -0.055789812080723866 0.052518458857194084 -3.5815073428251223 -3.2960671261190746 0.99439098477626953 0.77156580996704172 -1.3672012515762777 0.52833390126163593 -3.3319773063931373 0.72795644681685001 0.90495443572312784 -4.1563983814516554 -4.1563983814516554 -2.7076052405708424 -4.1563983814516554 0.53685169702506474 0.057943543528538477 -2.8789395101136162 -0.59074244130786324 -2.4137699550052854 1.0061828085464981
leaf_weight=154.85005620494485 73.817245461046696 61.117059184238315 4.8030850738286963 196.14004187472165 94.068012872710824 182.63096755743027 160.1232006829232 136.31299854815006 3.2504992224276092 116.72075862437487 26.031643021851778 10.030735651031135 107.24390171095729 491.48362630978227 26.914022848010063 45.484329324215651 18.463958093896508 34.973511783406138 93.269190898165107 3.4180071484297505 8.3775753155350667 7.204714771360158 71.644762616604567 2.8483756072819224 3.6860895585268727 4.1049683243036261 18.056409223005176 22.641590178012848 39.709532674401999 6.7019730918109408
leaf_count=5162 2989 3081 60 6493 1761 10220 8820 2979 194 2263 477 542 5494 4457 303 1468 252 1804 1090 34 500 430 3256 170 50 75 851 558 1690 60
internal_value=0 17.777 42.9395 28.0131 45.0037 12.7881 15.5727 37.051 25.6023 31.4537 20.4116 40.2235 18.4485 48.9126 42.952 13.2935 27.4988 22.8557 41.6828 10.999 22.5364 25.8874 6.69572 39.0119 15.7987 8.82246 30.957 24.4872 19.7106 26.843
internal_weight=0 1248.78 977.345 409.197 873.363 839.581 656.95 287.812 103.982 348.08 425.182 243.299 358.452 585.552 30.1645 165.211 228.511 193.242 229.582 38.3915 53.8619 210.047 231.768 119.569 13.7168 111.349 66.7296 40.698 44.5126 202.842
internal_count=67583 51468 16115 12749 12629 38719 28499 6411 3486 9668 16423 4661 14537 6218 497 7537 7235 7000 4069 1838 1968 6983 12076 2433 592 5569 1886 1409 1750 6553
shrinkage=1


Tree=1
num_leaves=31
num_cat=0
split_feature=52 50 51 53 65 0 151 126 119 63 68 64 60 151 38 1 92 132 135 60 68 122 121 47 37 157 128 61 2 0
split_gain=2543.08 1006.29 712.39 1507.81 1793.24 698.073 695.094 1786.61 732.438 866.038 655.685 651.774 766.897 847.165 786.75 917.466 781.524 1024.86 649.452 648.187 1387.04 773.544 626.415 619.704 528.654 778.714 1998.32 555.389 944.169 590.07
threshold=-0.078468737902200977 -0.43214293248196184 2.0273533027897517 4.472301928564888 -0.066662974156774371 -0.38332878857052438 1.0000000180025095e-35 -0.58340885076844795 1.2950529797178649 -0.063470570096525361 -2.4120229631795151 -0.020040706753910602 -0.017146879845478597 1.0000000180025095e-35 0.60090553088453935 -0.058357569689832613 1.0000000180025095e-35 -0.019029318863198894 1.0000000180025095e-35 -0.017615514935110457 -2.9474621118464417 1.0000000180025095e-35 -0.31389720621089096 -0.25218087896940417 1.0000000180025095e-35 1.0000000180025095e-35 -0.073514817735370275 -0.012948974300904274 1.6499896396145692 -0.38319337042765839
decision_type=2 2 2 2 2 2 2 2 2 2 2 2 2 2 2 2 2 2 2 2 2 2 2 2 2 2 2 2 2 2
left_child=1 5 3 11 -5 -1 8 -8 19 -10 -6 12 14 16 23 -16 -14 -18 -11 20 21 -7 -15 -3 25 27 -27 28 -21 -29
right_child=-2 2 -4 4 10 6 7 -9 9 18 -12 -13 13 22 15 -17 17 -19 -20 24 -22 -23 -24 -25 -26 26 -28 29 -30 -31
leaf_value=-0.11351052728342424 0.08216235467577318 0.12472017900778583 -0.084330403749346458 -0.1022809456224983 3.76625575310758 2.6752044803906028 2.5344455171914166 0.38608036885883679 1.5840413532904307 -0.058384306009693493 -0.10247541282742534 0.086478965837912591 0.21106214580007318 1.74546640735513 1.2605428739379556 0.1729845482585598 2.0164228346671229 -0.13004082162993244 1.1477115830119247 0.022708162522391613 0.37166622501266716 -0.1161456931011195 -0.11817085551218827 -0.096806928391342861 0.14602373570157576 2.119719482812632 0.30198521334978246 1.5493972168603296 1.8116458722609636 0.2450277364443085
leaf_weight=69.060556463897228 11869.608751000836 990.03727898839861 155.68667136505246 3.1137227341532707 2.9812663774937396 4.1487219277769318 4.3710659220814696 33.830525707453489 3.4053149968385688 168.07885071542114 0.51354871224611898 1813.8131836252287 1084.5435082660988 6.2282435446977615 12.657211616635321 20.035238554701209 5.4279888113960624 3.7689747074618918 4.5864332728087893 162.68834872357547 105.202252603136 1.3050961866974828 2.5387898832559568 144.74031828716397 962.55484213586897 7.7726398371160021 27.255277926102281 3.4762062095105639 3.004742842167615 1503.0058881463483
leaf_count=1456 18385 7578 5502 143 23 20 28 134 21 2032 23 6326 8353 20 78 271 22 38 48 2528 505 20 35 1965 3357 21 123 38 20 8470
internal_value=0 1.57139 1.25622 1.33614 16.4289 2.00818 2.08067 6.31899 2.02591 0.0479862 31.9776 1.31171 1.66882 2.26694 1.10398 5.94044 2.18846 11.3679 -0.263473 2.15116 4.52277 20.0724 12.0579 0.964645 2.05286 2.387 7.05338 2.28925 0.551495 2.48038
internal_weight=0 7309.83 4246.09 4090.4 6.60854 3063.75 2994.69 38.2016 2956.48 176.071 3.49482 4083.79 2269.98 1102.51 1167.47 32.6925 1093.74 9.19696 172.665 2780.41 110.656 5.45382 8.76703 1134.78 2669.76 1707.2 35.0279 1672.18 165.693 1506.48
internal_count=67583 49198 30377 24875 189 18821 17365 162 17203 2101 46 24686 18360 8468 9892 349 8413 60 2080 15102 545 40 55 9543 14557 11200 144 11056 2548 8508
shrinkage=0.1


Tree=2
num_leaves=31
num_cat=0
split_feature=52 50 67 128 128 62 126 128 174 50 34 50 53 126 48 124 93 142 187 126 126 132 122 38 65 120 79 126 118 184
split_gain=1240.86 659.907 512.402 880.271 859.263 808.934 562.027 526.853 526.231 939.511 3340.18 725.534 645.757 603.114 788.49 758.988 580.274 561.14 539.936 950.438 513.034 1803.82 950.557 436.2 552.197 434.812 422.571 416.295 559.672 460.105
threshold=-0.078468737902200977 1.644155005862431 -0.027249528283931127 -0.1503233636043361 -0.17986511201547678 -0.026866275987120176 -0.3328547256889427 -0.049881419006457726 1.0000000180025095e-35 -0.38906681972539903 1.0000000180025095e-35 -0.43448721072721697 -0.24187581531730259 -0.37983362414134997 1.0000000180025095e-35 -1.2339309483809162 1.0000000180025095e-35 1.0000000180025095e-35 1.1021502097356621 -0.69302628049073134 -0.59906848358591691 -0.021474384075564488 -0.2390438853651809 -1.2101793651945283 -0.067443863577146101 1.0000000180025095e-35 1.0000000180025095e-35 -0.56774921795097877 -1.6810911856792903 1.0000000180025095e-35
decision_type=2 2 2 2 2 2 2 2 2 2 2 2 2 2 2 2 2 2 2 2 2 2 2 2 2 2 2 2 2 2
left_child=1 2 5 4 -4 6 8 -5 13 11 12 25 -11 15 17 16 18 -15 -1 -20 21 -9 -23 24 -2 -10 -13 28 -25 -30
right_child=23 -3 3 7 -6 -7 -8 20 9 10 -12 26 -14 14 -16 -17 -18 -19 19 -21 -22 22 -24 27 -26 -27 -28 -29 29 -31
leaf_value=0.1719452200053406 0.063170804235945149 -0.049288950176693019 -0.10807951948685116 0.062078683030382088 1.7825157799630351 0.21398256400053978 0.036179813111034451 -0.1069125583836498 0.37990164229307827 -0.13256211547111485 2.9987812003317456 -0.035846514078360724 1.2950381239862505 0.11350648959257544 1.2812489536397058 0.065788711635326666 1.5512398357024189 0.62154266391737112 2.6502695819627049 0.46383608763356421 0.12980817873559128 1.693540656025444 -0.10529016317547771 0.53211219006041621 0.41774850845192735 -0.12685374540501079 0.30738280100754467 0.067747370014810945 0.11397773217166239 0.68951345893473448
leaf_weight=171.70113542675972 92.525761803612113 208.02941801212728 3.962890263646841 1738.230032434687 6.111070938408373 1511.0807135552168 593.50420433562249 21.388922924175858 193.1013780804351 13.771748166531328 5.5773606318980447 126.98600083868951 4.1153489463031301 71.925252184271812 8.2818893156945688 1081.4262172970921 3.4830643814057103 31.159957556053996 2.0944970231503239 39.160111481323838 2059.5543671920896 12.824668511748316 3.8104638103395692 35.316819218918681 83.609072206541896 18.559209760278463 49.991075246594846 10701.517090765759 738.82239769771695 14.156486213207243
leaf_count=1627 1036 6537 82 4489 29 10137 3995 485 427 155 34 1186 38 553 31 11985 36 86 21 91 6773 60 86 154 466 178 77 12887 3812 30
internal_value=0 1.2648 1.31185 1.05242 10.3879 1.56599 1.20692 1.02791 1.48231 2.4763 8.62121 2.10529 1.95891 1.19164 3.42492 1 2.70936 2.67073 2.49996 5.74841 1.36528 5.00503 12.815 0.753076 2.31485 3.35467 0.611062 0.729135 1.43046 1.24798
internal_weight=0 7979.83 7771.8 3845.88 10.074 3925.92 2414.84 3835.81 1821.33 412.102 23.4645 388.638 17.8871 1409.23 111.367 1297.87 216.439 103.085 212.956 41.2546 2097.58 38.0241 16.6351 11665.9 176.135 211.661 176.977 11489.8 788.296 752.979
internal_count=67583 49198 42661 12004 111 30657 20520 11893 16525 2095 227 1868 193 14430 670 13760 1775 639 1739 112 7404 631 146 18385 1502 605 1263 16883 3996 3842
shrinkage=0.1


Tree=3
num_leaves=31
num_cat=0
split_feature=52 51 49 142 50 53 47 50 14 94 48 1 1 70 49 54 53 64 59 47 42 68 1 53 12 130 118 0 40 33
split_gain=632.671 482.58 441.402 350.62 486.655 580.3 701.393 404.02 425.882 394.586 412.389 466.674 2190.83 1139.49 1107.61 1104.3 1053.5 1034.19 1215.83 534.992 374.057 369.077 363.57 363.276 622.017 457.601 359.372 345.321 326.461 325.906
threshold=-0.078468737902200977 2.0273533027897517 0.63122863055381229 1.0000000180025095e-35 -0.43214293248196184 -0.024507389086423539 -0.097609913161503289 -0.4309707933593343 1.0000000180025095e-35 1.0000000180025095e-35 1.0000000180025095e-35 -0.03704922055576363 -0.048104836548316501 2.7263678370627664 0.026046412251759139 2.2556035170841051 0.67514723284421863 -0.067836241246283777 -0.020480516812387089 0.34826787282282629 -0.088827307738938474 -1.8696749222717248 -0.06820801240920582 -0.28942515855530732 1.0000000180025095e-35 -0.29614249140604459 1.3349972370912202 -0.38332878857052438 -2.1490567982487927 1.0000000180025095e-35
decision_type=2 2 2 2 2 2 2 2 2 2 2 2 2 2 2 2 2 2 2 2 2 2 2 2 2 2 2 2 2 2
left_child=1 3 -2 4 26 7 28 8 -6 10 -8 12 13 16 -14 -15 17 -12 19 -19 23 -22 -11 -9 25 -25 27 -1 -7 -5
right_child=2 -3 -4 29 5 6 9 20 -10 22 11 -13 14 15 -16 -17 -18 18 -20 -21 21 -23 -24 24 -26 -27 -28 -29 -30 -31
leaf_value=-0.11392568955430199 0.057865492266031771 -0.079334525260870842 0.10446465640792342 0.10163192237749633 -0.094831092019102975 -0.10349983614935226 -0.1319732002821139 0.11123758354273022 0.34308845452905973 1.6853873676405025 -0.10344145882790262 0.12378077181221421 2.5297734034502946 -0.10349271246440456 -0.16259274145207717 2.3843269603906512 -0.0032554787137266564 -0.1301810188791481 -0.10342322093894858 2.4428663942597915 0.11573672614059055 -0.11735039163411154 -0.15269269837383881 -0.13565362955167268 0.51341211205668391 0.052706048334035985 0.002473424190612757 0.13996173262260855 2.1987260273876847 0.21558158137941019
leaf_weight=54.489923302084208 8898.0743361655623 140.56401671469212 2634.5805313698947 467.73731802217662 245.30155551806092 0.8167868480086331 42.478160688653588 1786.5864546215162 24.418185140937567 3.2235570773482323 7.1775806583464172 267.23675151262432 6.5697708018124086 2.9005965404212466 1.9910604692995546 4.6358538120985031 81.243796464055777 0.91716414503753152 3.5323365908116084 6.793925179168582 105.21866811066866 191.70367402303964 1.6153767127543677 148.67983337957412 27.005613962188363 973.26135050971061 216.03112816717476 3181.5156816206872 2.5047846511006346 541.65933378785849
leaf_count=1129 15931 5502 2454 2422 1986 25 1119 8128 31 42 225 244 34 89 36 29 1674 24 111 39 310 1762 30 2138 32 4129 2021 14137 20 1730
internal_value=0 1.04422 0.685109 1.07498 0.99945 0.759084 1.85031 0.623969 -0.551855 1.73857 1.63645 1.96432 3.64148 2.41212 19.0359 14.2683 1.51558 8.34345 14.3301 21.3683 0.722081 -0.347526 10.7178 0.830269 0.3916 0.277446 1.2735 1.35687 16.326 1.62779
internal_weight=0 8537.81 11532.7 8397.25 7387.85 3935.81 433.638 3502.18 269.72 430.316 425.477 382.999 115.762 107.201 8.56083 7.53645 99.6648 18.421 11.2434 7.71109 3232.46 296.922 4.83893 2935.53 1148.95 1121.94 3452.04 3236.01 3.32157 1009.4
internal_count=67583 49198 18385 43696 39544 22257 3741 18516 2017 3696 3624 2505 2261 2191 70 118 2073 399 174 63 16499 2072 72 14427 6299 6267 17287 15266 45 4152
shrinkage=0.1


Tree=4
num_leaves=31
num_cat=0
split_feature=49 50 0 52 53 168 42 126 128 116 0 47 126 63 95 126 53 55 50 51 128 15 122 147 49 49 124 117 0 125
split_gain=445.333 499.074 331.317 361.572 341.699 317.047 305.204 292.072 270.08 245.808 445.994 485.908 715.639 482.412 298.652 325.233 256.718 407.165 244.128 243.409 239.856 238.692 359.16 342.239 322.53 504.875 384.889 334.722 316.198 366.397
threshold=1.6713372001164204 -0.43243596726261874 -0.38327825259866571 1.2728721778464636 -0.28263239523559242 1.0000000180025095e-35 -0.55821176136871264 -0.59906848358591691 0.5409535492163563 -1.1077415664515342 -0.38326251124978883 -0.37702665904501648 -0.81830334303048413 -0.060030059598992255 1.0000000180025095e-35 -0.6617070148557932 -0.28942515855530732 0.053537996622321123 -0.4312638281399912 1.9922040586648042 -0.43392414835128673 1.0000000180025095e-35 1.1781101469028081 1.0000000180025095e-35 0.30480170001697593 0.35340201115427633 1.3992005371879768 1.0000000180025095e-35 -0.38324686545339004 -1.4407873802164606
decision_type=2 2 2 2 2 2 2 2 2 2 2 2 2 2 2 2 2 2 2 2 2 2 2 2 2 2 2 2 2 2
left_child=1 2 -1 4 5 21 -3 -6 9 10 11 12 -8 -14 16 -16 20 18 -18 -19 -11 28 23 24 26 -26 -23 -27 29 -4
right_child=-2 6 3 -5 7 -7 8 -9 -10 14 -12 -13 13 -15 15 -17 17 19 -20 -21 -22 22 -24 -25 25 27 -28 -29 -30 -31
leaf_value=-0.019941086188490522 0.11679931113158129 -0.16109319377434705 1.3336214755291862 0.038951135234012856 0.1811648057019318 -0.13618777245334934 2.0995495246143063 -0.15706276186396456 -0.058737590700128864 0.62600550184678372 0.077989033551120357 0.13125046781027128 0.081931453295327208 0.68417834270918454 0.37238424868283004 -0.1955650979840087 -0.14264194837675159 0.10289125856656543 0.027738886569127215 -0.18293564923265176 0.070009463048293405 0.12171822248707416 -0.046469954043922616 -0.14738455534376413 0.75144242407195527 -0.14350590797629853 -0.14811651856120792 0.32463830949384143 0.14602949991052591 0.32775169621739364
leaf_weight=226.71831269655377 2169.3553898688406 62.520617438480258 3.9987886678427449 708.94099717028439 37.344742808490992 46.561136012896895 2.6161914635449639 80.708879619836807 187.77441439405084 7.7693465128540984 2537.5616009104997 126.84447443112731 24.741626380011439 28.762647436931729 11.529089439660309 80.366563120856881 86.112931346520782 1014.0067764725536 3590.9116219030693 30.695991229265928 5840.9463309757411 1322.7353263963014 152.72519867308438 48.34428707882762 19.820431471802294 22.004127372056246 55.061966836452484 49.927610903978348 1658.8762118313462 38.364484408870339
leaf_count=2861 2138 397 21 891 235 509 22 650 1490 21 5341 310 129 48 81 511 688 2460 17553 970 16529 6058 1141 446 27 166 511 101 5102 176
internal_value=0 0.688534 0.978416 1.04132 1.17198 1.22974 0.593444 -0.500688 0.603599 0.62031 0.888611 2.39648 4.84649 4.05685 0.551852 -1.24311 0.567457 0.394012 0.237487 0.944929 0.70748 1.26553 0.997042 1.14412 1.23024 3.04566 1.10935 1.81432 1.52919 4.22699
internal_weight=0 18105.3 4472.13 4245.41 3536.47 3418.42 13633.2 118.054 13570.6 13382.9 2720.53 182.965 56.1205 53.5043 10662.3 91.8957 10570.4 4721.73 3677.02 1044.7 5848.72 3371.86 1670.62 1517.89 1469.55 91.7522 1377.8 71.9317 1701.24 42.3633
internal_count=67583 65445 18895 16034 15143 14258 46550 885 46153 44663 5850 509 199 177 38813 592 38221 21671 18241 3430 16550 13749 8450 7309 6863 294 6569 267 5299 197
shrinkage=0.1


Tree=5
num_leaves=31
num_cat=0
split_feature=49 50 0 42 124 63 117 47 117 128 125 168 52 53 126 123 68 67 139 128 61 47 0 122 130 42 52 64 119 120
split_gain=426.042 339.305 250.336 248.604 246.558 283.449 273.457 261.732 249.81 328.234 285.032 244.116 246.862 255.119 238.28 229.506 220.781 296.165 200.68 200.158 196.383 196.082 353.892 316.215 225.307 223.504 203.784 313.685 297.591 293.836
threshold=1.6713372001164204 -0.43243596726261874 -0.38330339493340987 -0.55821176136871264 -0.24650664129258151 -0.071897880378005999 -1.4787221198876279 -0.37702665904501648 0.90104203648629644 0.032835476544736224 -1.2246785864264031 1.0000000180025095e-35 1.2728721778464636 -0.28263239523559242 -0.59906848358591691 -0.96279223100788625 -3.1270933101088945 -0.068804851532317718 1.0000000180025095e-35 0.83046268364553522 -0.012831220335206525 -0.3294663618733546 -0.38312193873971834 0.97565957086452393 0.55422620840532189 0.23974180980190354 -0.14123483428813369 -0.055420477487379292 1.5961663365315066 1.2581026575212839
decision_type=2 2 2 2 2 2 2 2 2 2 2 2 2 2 2 2 2 2 2 2 2 2 2 2 2 2 2 2 2 2
left_child=1 2 -1 -3 5 -5 7 15 18 -10 -11 12 13 -4 -15 -6 -7 -18 19 -8 -12 23 -23 24 25 26 27 -19 -29 -30
right_child=-2 3 11 4 6 16 8 -9 9 10 20 -13 -14 14 -16 -17 17 21 -20 -21 -22 22 -24 -25 -26 -27 -28 28 29 -31
leaf_value=-0.050601283571735989 0.1089081526498223 -0.146688932147512 0.10618264602945787 -0.12094127170734344 0.32178676810978379 0.15360176859045041 0.059476344206760762 -0.15130725181633678 -0.022958222107671358 -0.22749809218370456 -0.21679992222002245 -0.13507645582465819 0.037376717341130648 0.14880640269732337 -0.15140174340033649 -0.019318805759730242 0.72233015676812595 -0.13350339618312923 -0.10482543413400869 -0.21867606021605127 0.10307558162480142 0.13183855626748814 0.020983176388745944 0.016334798766110402 0.0059665461636000732 -0.19671426465812353 0.084144219829224418 0.13353975631438764 0.2836417677383169 1.0865811157863783
leaf_weight=132.75505402311683 2097.6904602777213 61.830568192526698 3609.1264188960195 78.014182299375534 24.487622525542974 306.73564809560776 5196.5033809356391 141.11777578480542 1026.2738374760374 29.798444454558194 19.969870308414102 48.210264582186937 715.70822497457266 40.991835974156857 74.471108831465244 101.41882932372391 6.8806565999984732 40.142146628350019 76.719427511096001 26.0000477777794 493.34166646935046 348.75462614186108 1652.45540614333 678.09001656994224 283.68570090457797 25.326607722789049 2089.4609242267907 820.74139377847314 81.892949743196368 4.8262344002723685
leaf_count=2002 2138 397 14515 2173 63 472 15294 1078 7769 197 142 587 918 234 639 481 50 431 576 724 914 895 5738 2185 768 199 2828 2953 202 21
internal_value=0 0.6132 0.847328 0.533728 0.542855 0.685087 0.414947 -0.577912 0.453546 0.103107 0.731766 0.887355 0.911656 1.01501 -0.448214 0.47023 0.708403 0.66632 0.557329 0.580916 0.906311 0.658832 0.403022 0.786046 0.912237 0.991215 1.01589 1.40053 1.52154 3.28328
internal_weight=0 18235.7 4621.26 13614.5 13552.6 6417.01 7135.63 267.024 6868.61 1569.38 543.11 4488.51 4440.3 3724.59 115.463 125.906 6338.99 6032.26 5299.22 5222.5 513.312 6025.38 2001.21 4024.17 3346.08 3062.39 3037.06 947.603 907.461 86.7192
internal_count=67583 65445 18895 46550 46153 18915 27238 1622 25616 9022 1253 16893 16306 15388 873 544 16742 16270 16594 16018 1056 16220 6633 9587 7402 6634 6435 3607 3176 223
shrinkage=0.1


Tree=6
num_leaves=31
num_cat=0
split_feature=49 117 122 34 60 2 2 47 95 126 125 177 50 122 125 157 42 121 67 52 45 108 93 123 52 126 51 48 24 123
split_gain=398.636 283.432 337.072 360.167 307.539 314.93 333.02 291.684 383.121 283.852 271.823 258.752 418.378 274.093 251.133 240.574 230.804 229.405 218.458 233.274 382.154 326.45 299.74 293.761 232.29 359.227 506.741 219.889 215.376 214.446
threshold=1.6713372001164204 0.90104203648629644 -0.44149446140346499 1.0000000180025095e-35 -0.014599863170355658 1.1444341786315939 1.0000000180025095e-35 -0.34135643616627004 1.0000000180025095e-35 -0.84962260866542227 -0.90051539574131723 1.0000000180025095e-35 -0.43390114116590317 1.1781101469028081 1.0444637483691994 1.0000000180025095e-35 -0.088827307738938474 1.4312060363163981 -0.069180409982982874 0.13540092385727351 1.0000000180025095e-35 1.0000000180025095e-35 1.0000000180025095e-35 1.0001027484540042 1.4693573491415572 -0.59906848358591691 0.7619805142916577 0.51128904097683237 1.0000000180025095e-35 1.1091524695352202
decision_type=2 2 2 2 2 2 2 2 2 2 2 2 2 2 2 2 2 2 2 2 2 2 2 2 2 2 2 2 2 2
left_child=1 2 3 9 5 6 11 8 -4 -1 -7 13 -13 29 15 -12 -6 -15 -11 20 21 22 -20 24 25 26 -21 -27 -8 -3
right_child=-2 4 7 -5 16 10 28 -9 -10 18 14 12 -14 17 -16 -17 -18 -19 19 23 -22 -23 -24 -25 -26 27 -28 -29 -30 -31
leaf_value=-0.12929997579075828 0.10159996309335693 -0.007852824877958315 0.08861880910421964 -0.13891581585360788 0.095068614473929461 -0.10502546475171565 -0.1342891934671322 0.049250607770238194 -0.18160888092738336 -0.11819569496472614 0.1104303920144592 1.1110793961624565 0.13390744535150953 -0.19293867413233798 -0.14825124210021171 0.70588592759026403 -0.058795742484059776 0.078788357700744369 0.078786135785970213 -0.11722691189700259 -0.058994475707222049 0.79705995996297174 -0.14851504746447813 -0.22510233801711405 0.066235705765793476 -0.010379837795808639 0.44025477624739823 -0.28401761893170951 0.11353543683778539 0.080163738452574643
leaf_weight=91.760151544585824 2027.4605688322335 1032.1610455513 5796.1166865723208 108.47754989750683 853.42563454434276 74.024327902123332 274.14033277798444 3373.7967729344964 52.945020889863372 77.872737006284297 482.98010823968798 4.7192209474742404 61.23322544619441 118.95651537273079 37.942692305892706 6.8816896937787524 110.06503548286855 42.053514649160206 3026.30252090469 27.060568884015083 225.34633605275303 6.2641823608428231 59.149069779552519 46.475650129839778 905.27156793698668 927.35238751210272 41.023670606315136 30.32684426382184 40.21162436902523 378.2593159712851
leaf_count=1524 2138 4656 16253 1538 1644 463 2071 11473 339 2119 1490 21 72 958 1224 25 2763 64 10820 221 1358 24 508 197 727 1790 63 157 40 843
internal_value=0 0.548681 0.609337 0.415161 0.293513 0.111873 -0.0831379 0.726663 0.861727 0.450981 0.744296 0.0978533 2.03829 0.0164138 0.995981 1.18795 0.774918 -1.21967 0.480767 0.505223 0.667292 0.758928 0.744287 0.233369 0.293163 -0.0326633 2.1868 -0.190451 -1.02588 0.157523
internal_weight=0 18312.6 14795.5 5572.68 3517.05 2553.56 1951.73 9222.86 5849.06 5464.21 601.829 1637.38 65.9524 1571.43 527.804 489.862 963.491 161.01 5372.45 5294.57 3317.06 3091.72 3085.45 1977.51 1931.04 1025.76 68.0842 957.679 314.352 1410.42
internal_count=67583 65445 49111 21046 16334 11927 8725 28065 16592 19508 3202 6614 93 6521 2739 1515 4407 1022 17984 15865 12710 11352 11328 3155 2958 2231 284 1947 2111 5499
shrinkage=0.1


Tree=7
num_leaves=31
num_cat=0
split_feature=49 47 132 17 165 51 126 132 50 163 42 50 88 55 126 47 128 59 136 122 2 38 122 34 53 0 50 60 116 38
split_gain=374.316 337.676 296.57 266.398 253.364 237.372 246.648 360.64 343.958 236.052 338.073 277.411 235.079 240.867 212.566 210.047 234.925 228.563 298.191 206.304 205.466 201.893 197.324 331.259 253.73 215.955 213.771 220.681 360.788 269.091
threshold=0.48883281448274091 -0.35919154760564326 0.004198800654274258 1.0000000180025095e-35 1.0000000180025095e-35 4.1714571944115209 -0.56774921795097877 -0.027587047106478475 -0.37412204591189768 1.0000000180025095e-35 -0.32351953455382559 -0.41924940213305867 1.0000000180025095e-35 0.053537996622321123 -0.63038774922085505 -0.27596102755523505 0.49368675175853111 -0.023553530058174888 1.0000000180025095e-35 -1.3525220535757436 1.6630442534241514 0.60090553088453935 -0.44149446140346499 1.0000000180025095e-35 -0.2758396319158774 -0.38332878857052438 -0.4356593498498445 -0.017536053337675116 1.0000000180025095e-35 0.37742712313610943
decision_type=2 2 2 2 2 2 2 2 2 2 2 2 2 2 2 2 2 2 2 2 2 2 2 2 2 2 2 2 2 2
left_child=1 2 22 4 9 6 7 -2 -9 12 -11 -12 13 15 -10 16 -3 18 -17 -14 -19 -4 23 24 -1 -24 -27 28 29 -28
right_child=5 3 21 -5 -6 -7 -8 8 14 10 11 -13 19 -15 -16 17 -18 20 -20 -21 -22 -23 25 -25 -26 26 27 -29 -30 -31
leaf_value=0.050608817508409759 -0.058187886110218023 0.042875962805500073 -0.20346578977439167 -0.21210432852545402 -0.15655342904151126 -0.27297389512317771 0.077556781189880103 0.16534411012554842 -0.12253904349278462 -0.21014576882715796 0.1044460263132399 -0.27865037695714023 -0.18824867488801345 0.083165044926858223 0.53599956934007431 -0.062279488279722586 -0.24685323346350405 0.018242639343767516 0.26521775560193483 0.092820897820188444 0.48817883596924205 0.11936420339691685 -0.058011704362341654 -0.13479614889656663 -0.2194434730904874 0.12366164381657579 0.067254553507653497 0.059941320794611154 0.027914414782080774 0.24020050149821839
leaf_weight=3267.5949435038492 54.217984716407955 2928.4504519421607 70.12626233138144 44.747531987726688 70.074394205585122 18.552950531244278 3140.2389337802306 184.67650689650327 5.5179629381746045 94.607255460694432 108.56993174366653 22.886575142852962 26.894317449070513 757.03753587044775 43.875650784000754 659.3588260859251 28.256234583444893 1481.8584602847695 29.026080898940563 900.49308263231069 9.362617261707781 26.765907794237137 124.70382175967097 102.51229923218489 35.166183385998011 783.42599488049746 136.67131822556257 4592.9133328767493 249.78006567340344 263.26138726621866
leaf_count=9354 354 9933 475 323 624 121 4387 456 48 706 106 128 179 3091 34 5144 262 9520 163 1702 20 20 1352 1617 288 2528 300 12481 1245 622
internal_value=0 0.475799 0.597861 0.311274 0.326567 0.837532 0.856835 1.74206 2.28036 0.345382 -0.659945 0.37749 0.378703 0.305058 4.62432 0.227444 0.401071 -0.00808705 -0.484704 0.846699 0.211931 -1.14286 0.615511 0.422386 0.477334 0.722432 0.749387 0.676579 1.22207 1.81099
internal_weight=0 16814.5 9652.92 7161.62 7116.88 3447.08 3428.53 288.288 234.07 7046.8 226.064 131.457 6820.74 5893.35 49.3936 5136.31 2956.71 2179.61 688.385 927.387 1491.22 96.8922 9556.03 3405.27 3302.76 6150.76 6026.05 5242.63 649.713 399.933
internal_count=67583 62183 30282 31901 31578 5400 5279 892 538 30954 940 234 30014 28133 82 25042 10195 14847 5307 1881 9540 495 29787 11259 9642 18528 17176 14648 2167 922
shrinkage=0.1


Tree=8
num_leaves=31
num_cat=0
split_feature=49 128 184 42 117 60 122 2 2 125 122 34 126 179 95 53 119 51 122 25 24 125 125 119 183 50 130 37 125 126
split_gain=341.677 225.697 223.337 217.014 214.812 279.864 269.1 271.178 294.529 227.458 199.101 265.727 239.165 236.824 233.524 232.103 242.374 455.846 236.186 196.452 195.998 194.151 212.102 193.723 196.594 192.81 192.285 183.239 208.028 200.312
threshold=1.6713372001164204 0.51732015048744373 17.394380461775196 -0.55821176136871264 0.90104203648629644 -0.014599863170355658 1.3805607229410923 1.1444341786315939 1.0000000180025095e-35 -0.90051539574131723 -0.44149446140346499 1.0000000180025095e-35 -0.84962260866542227 1.0000000180025095e-35 1.0000000180025095e-35 -0.28942515855530732 -0.81274051797762847 0.72683127016671067 1.3805607229410923 1.0000000180025095e-35 1.0000000180025095e-35 1.3686269390542856 0.93640935147417059 -0.51162716116398654 1.0000000180025095e-35 -0.40547676744218486 -0.030402272714992611 1.0000000180025095e-35 -1.1166241895313747 -0.58340885076844795
decision_type=2 2 2 2 2 2 2 2 2 2 2 2 2 2 2 2 2 2 2 2 2 2 2 2 2 2 2 2 2 2
left_child=1 2 3 -1 10 6 7 8 21 -9 11 12 -5 14 15 -12 19 18 23 -17 -10 22 -6 25 27 -18 -3 28 29 -25
right_child=-2 26 -4 4 5 -7 -8 9 20 -11 13 -13 -14 -15 -16 16 17 -19 -20 -21 -22 -23 -24 24 -26 -27 -28 -29 -30 -31
leaf_value=-0.13750267247249634 0.08870984457730384 -0.24792362875643659 0.5784275713233622 -0.1288616717420808 0.01801118552360682 0.070843530902073848 -0.12281088335909914 -0.0931145545356548 -0.13634910365497341 0.099523486154807828 0.074775018885720843 -0.13403999240444214 0.041555079022664469 -0.18886334888769377 -0.10910929570911723 0.085317415413559666 -0.15498660264916755 -0.19524354237315031 -0.12828943860927397 -0.2472067945933748 0.10500959915264159 0.2384355367578706 -0.12057649404910303 0.35218883218807351 0.18500521636028699 0.02643070081734953 -0.010153777716559122 0.071573730595601487 -0.035295419787361913 0.048597061959277273
leaf_weight=64.762239949312061 1911.1236441489309 43.02787359431386 7.8589550815522662 83.662501890212297 1378.2729497058317 910.74871054384857 152.03452630341053 70.092221070080996 229.4343817117624 488.3007109137252 5770.2433870946988 90.366423189640045 5256.6104735983536 38.025305774062872 79.789266812615097 1074.2253275420517 95.884976416826248 92.423847867175937 88.318202331662178 18.065641034394503 39.427260117605329 37.115734474733472 120.05091794673353 24.054545420221984 102.39115179330111 150.58779073320329 162.31967573519796 924.76787337008864 465.76874026097357 225.22443426959217
leaf_count=428 2138 532 23 1468 5194 4319 1988 446 1871 1506 16063 1503 17335 277 408 2176 638 1290 550 163 37 59 748 99 82 275 1029 2216 2180 542
internal_value=0 0.442722 0.454563 0.452245 0.458817 0.233473 0.0614582 0.144439 -0.0440293 0.753426 0.511759 0.360078 0.388853 0.601786 0.612179 0.627226 0.414008 0.220581 0.317277 0.798177 -1.00955 0.125037 0.0690706 0.388342 0.505735 -0.441458 -0.599753 0.421795 0.0416404 0.778926
internal_weight=0 18283.9 18078.5 18070.6 18005.9 3425.48 2514.73 2362.69 1804.3 558.393 14580.4 5430.64 5340.27 9149.77 9111.75 9031.96 3261.71 2169.42 2077 1092.29 268.862 1535.44 1498.32 1988.68 1742.21 246.473 205.348 1639.82 715.048 249.279
internal_count=67583 65445 63884 63861 63433 16168 11849 9861 7909 1952 47265 20306 18803 26959 26682 26274 10211 7872 6582 2339 1908 6001 5942 6032 5119 913 1561 5037 2821 641
shrinkage=0.1


Tree=9
num_leaves=31
num_cat=0
split_feature=49 75 1 165 2 61 42 117 60 88 121 156 128 130 0 2 123 52 50 51 0 123 50 135 42 118 52 1 38 58
split_gain=305.864 211.579 204.56 190.811 203.159 204.894 170.792 166.313 245 237.52 256.001 201.84 204.63 236.696 208.994 247.402 242.21 235.727 204.476 195.32 189.498 183.873 183.426 170.81 165.624 162.592 160.936 156.244 157.4 155.025
threshold=1.6713372001164204 1.0000000180025095e-35 -0.073194528363565589 1.0000000180025095e-35 -0.15785564491518625 -0.0060611333890334086 -0.55821176136871264 0.90104203648629644 -0.014599863170355658 1.0000000180025095e-35 -0.19755699004240504 1.0000000180025095e-35 0.22781101605826484 0.55422620840532189 -0.38311512365491868 1.1864242173180577 -1.2899413942515345 0.30580935945579618 -0.4160260195458329 -0.50339227420643573 -0.37749645887284605 0.23675470088549103 -0.42364492384291202 1.0000000180025095e-35 -0.088827307738938474 -1.3794823434022394 -0.052189856967671977 -0.049778820962550444 0.58027000011012642 -0.028101124652979998
decision_type=2 2 2 2 2 2 2 2 2 2 2 2 2 2 2 2 2 2 2 2 2 2 2 2 2 2 2 2 2 2
left_child=1 2 -1 6 5 -5 -4 23 9 11 -11 12 13 14 17 18 -17 29 21 -18 -14 22 -16 -8 26 -20 -10 -23 -29 -9
right_child=-2 -3 3 4 -6 -7 7 8 24 10 -12 -13 20 -15 15 16 19 -19 25 -21 -22 27 -24 -25 -26 -27 -28 28 -30 -31
leaf_value=-0.080124893680358897 0.082617900398917962 0.10991210886842612 -0.1251089328099689 -0.1530127642294665 0.078689781289059874 0.15042363302723424 0.046526490373151513 -0.12542701782546722 0.11721814078748681 -0.094502829002244937 0.13691553106677959 0.15453512320362578 -0.21201152299706405 -0.15850541850699279 -0.13186803362743968 0.17598409239883708 -0.15827867991832187 0.10088413652152595 -0.012133264278426301 0.052358829728161388 0.12296632751361647 -0.17844862461892175 0.033285155458609925 -0.15197097668057083 -0.056368032940822467 -0.17071115714781368 0.027350922878627594 0.065513725439028433 -0.12957834367490165 0.097560871648475503
leaf_weight=144.70992358401418 1850.1095309741795 422.18151858635247 62.026004865765572 148.78354433085769 87.939791651442647 26.166959349066019 13952.891428530216 100.14468461740762 478.74087955802679 60.271442346274853 231.05224899481982 74.421608483418822 18.842224408872426 120.5122952805832 226.99149529170245 97.755087435245514 65.14252538792789 280.49415565095842 91.554371017962694 135.78396526630968 162.81192651670426 36.341942214407027 95.560438523069024 43.486511502414942 100.22508357279003 220.08105518901721 341.36681164801121 307.22227747831494 47.787294046021998 45.271159511990845
leaf_count=3962 2138 747 404 1384 311 26 43870 1707 1062 371 529 200 114 1141 1523 108 496 447 239 399 196 351 296 425 2122 1309 455 690 361 200
internal_value=0 0.399444 0.382853 0.392556 -0.453029 -1.07628 0.405334 0.411261 0.2107 0.0435697 0.890378 -0.0724284 -0.131093 -0.229493 -0.13615 -0.332129 0.468799 0.473181 -0.565395 -0.159321 0.882205 -0.270376 -0.829391 0.459098 0.649812 -1.24123 0.798112 0.190364 0.392527 -0.56006
internal_weight=0 18226.6 17804.4 17659.7 262.89 174.951 17396.8 17334.8 3338.37 2418.04 291.324 2126.72 2052.3 1870.64 1750.13 1324.22 298.682 425.91 1025.54 200.926 181.654 713.903 322.552 13996.4 920.333 311.635 820.108 391.352 355.01 145.416
internal_count=67583 65445 64698 60736 1721 1410 59015 58611 14316 10677 900 9777 9577 9267 8126 5772 1003 2354 4769 895 310 3221 1819 44295 3639 1548 1517 1402 1051 1907
shrinkage=0.1


Tree=10
num_leaves=31
num_cat=0
split_feature=1 82 49 117 2 119 47 17 132 132 124 126 119 75 126 33 38 116 88 50 180 53 47 38 125 162 120 121 124 50
split_gain=221.165 223.383 210.415 360.889 269.378 273.409 223.391 220.541 219.122 215.116 237.952 371.785 265.204 215.106 207.199 200.826 189.321 198.844 185.565 184.847 184.323 175.347 207.043 315.087 311.769 228.765 197.003 420.787 191.305 205.893
threshold=-0.073194528363565589 1.0000000180025095e-35 0.27106008273056992 -1.4787221198876279 -0.8670239405102208 -1.1138538747912703 -0.35919154760564326 1.0000000180025095e-35 0.004198800654274258 -0.001913862376639731 -1.0145033245835082 -0.56774921795097877 0.39171290927693897 1.0000000180025095e-35 -0.84962260866542227 1.0000000180025095e-35 0.58641675395782389 -1.4412218890674293 1.0000000180025095e-35 -0.4359523846305014 1.0000000180025095e-35 -0.28942515855530732 -0.36513658475210103 0.57587946164748538 -1.3327329833214321 1.0000000180025095e-35 -1.3601918970167928 0.73316473930548243 -0.4659342650899892 -0.43038472379802051
decision_type=2 2 2 2 2 2 2 2 2 2 2 2 2 2 2 2 2 2 2 2 2 2 2 2 2 2 2 2 2 2
left_child=-1 2 6 -4 5 -5 8 -8 9 10 11 12 14 20 -2 -15 -13 -18 -7 -16 21 22 25 24 -24 -12 -23 -28 -26 -30
right_child=1 -3 3 4 -6 18 7 -9 -10 -11 13 16 -14 15 19 -17 17 -19 -20 -21 -22 26 23 -25 28 -27 27 -29 29 -31
leaf_value=-0.082635259187415239 -0.12248413763151661 -0.11711341941858272 -0.14681622532968505 0.090689273218092697 0.085367820885193957 0.0069918390026581763 0.022798467509029825 -0.1951499994536772 -0.11401854392043376 0.14524571891793181 0.035936474494426503 0.061793797537074195 -0.13846864446861656 -0.096002105063911033 -0.015338094494357933 0.14998906222336647 0.12180549855476196 -0.078280554808363448 -0.19995413011863597 0.20622144653218069 -0.12632253446612626 0.091271094587886847 0.32616342851718039 -0.17322254777726942 0.23399600414780714 -0.15963275284053793 0.008399153708903399 -0.1690197516718871 -0.18762071162201799 0.085675484146416458
leaf_weight=147.44188725203276 23.229773655533791 89.747056379914284 81.256686642765999 472.72668755054474 2516.3682006299496 807.90164671838284 6203.683660581708 46.778295565396547 85.35013385117054 217.43865072727203 4367.0259314700961 2268.963599331677 30.090030744671822 38.227871030569077 41.794564798474312 251.73674531280994 66.43120388686657 196.83587363362312 45.784918874502182 380.25200567394495 75.097663477063179 174.18250739574432 70.522122412919998 35.81058244407177 70.323947802186012 60.642573848366737 705.0765183493495 164.95309714972973 32.576974391937256 179.21355563402176
leaf_count=532 57 105 163 224 1623 794 7654 111 173 117 4186 1754 70 70 40 80 28 290 115 165 148 124 39 79 40 107 859 386 55 103
internal_value=0 0.402951 0.410118 0.617354 0.661453 0.296778 0.358605 0.211673 0.454915 0.469321 0.446168 0.677133 1.4886 0.334585 1.68277 1.17558 0.524799 -0.277921 -0.0410709 1.84281 0.293499 0.313448 0.393992 1.094 1.38101 0.332579 -0.0580386 -0.252385 0.910893 0.436379
internal_weight=0 19800 19710.3 3924.04 3842.78 1326.41 15786.2 6250.46 9535.78 9450.43 9232.99 3007.6 475.366 6225.39 445.276 289.965 2532.23 263.267 853.687 422.047 5935.43 5860.33 4816.12 388.447 352.637 4427.67 1044.21 870.03 282.114 211.791
internal_count=20291 19759 19654 2919 2756 1133 16735 7765 8970 8797 8680 2404 332 6276 262 150 2072 318 909 205 6126 5978 4609 316 237 4293 1369 1245 198 158
shrinkage=0.1


Tree=11
num_leaves=31
num_cat=0
split_feature=49 126 132 47 163 55 88 2 132 132 51 142 0 52 52 117 130 122 132 126 132 61 152 124 122 30 79 50 65 124
split_gain=293.567 215.145 309.952 184.677 256.961 228.05 328.35 384.359 218.884 190.752 163.057 156.141 267.484 212.995 250.694 201.898 271.433 208.916 196.614 189.534 340.436 298.993 257.678 238.326 222.231 214.4 258.532 226.877 213.539 211.037
threshold=0.68230539066626172 -0.58340885076844795 -0.026364514500295679 -0.34135643616627004 1.0000000180025095e-35 0.053537996622321123 1.0000000180025095e-35 -0.87018974191907006 0.004198800654274258 -0.026364514500295679 4.1714571944115209 1.0000000180025095e-35 -0.38332462498612396 0.11639927148922945 0.41415920700123882 -1.4787221198876279 -0.083550316453203002 0.67198370680709785 1.0000000180025095e-35 -0.41115288977628811 -0.020251851469381691 -0.012387516925153401 1.0000000180025095e-35 0.082634794403530096 0.97565957086452393 1.0000000180025095e-35 1.0000000180025095e-35 -0.43448721072721697 -0.0099831631107311306 -1.2339309483809162
decision_type=2 2 2 2 2 2 2 2 2 2 2 2 2 2 2 2 2 2 2 2 2 2 2 2 2 2 2 2 2 2
left_child=3 2 -2 8 5 6 -5 -8 11 -9 -3 12 -1 15 -15 -13 17 -17 19 20 22 24 25 -22 -21 26 29 -28 -25 -14
right_child=1 10 -4 4 -6 -7 7 9 -10 -11 -12 13 18 14 -16 16 -18 -19 -20 21 23 -23 -24 28 -26 -27 27 -29 -30 -31
leaf_value=-0.07865962345151177 -0.060889974802879269 0.059215944094207378 0.22197859584907564 0.00060361064816174409 -0.10774694746041102 0.064542281032372126 -0.16752841113333855 -0.16990004063983194 -0.095036641515302389 0.10353027620965333 -0.38508189691895045 0.25075640146668676 0.040522986297086942 -0.1957006721948949 0.043662108579581166 -0.075899118013813716 0.12383982912595506 0.10658394301810409 0.1542949011546294 -0.0018734493861529628 0.12175393518131446 0.038345560293385275 0.20581769308884265 0.06670725445069596 -0.12427355700685978 0.062104940838761905 0.12456160137471346 -0.029356824333841919 -0.089735130038457317 -0.051653942287878153
leaf_weight=203.0523514971137 49.668525159358978 2467.1792144030333 176.00358352065086 4207.076334040612 161.25101613998413 969.96838736534119 61.550040245056152 26.521059975028038 121.44887626171112 671.77489823102951 8.2879755795001966 81.455527737736702 358.64693219959736 46.544063970446587 730.26162573695183 149.88958178460598 578.95989571511745 107.89942002296448 141.62242130935192 1267.5400478318334 892.80160103738308 3351.4768491759896 79.492014840245247 590.6845780313015 167.9933620095253 891.86252346634865 263.69896169006824 150.37648341059685 102.37212024629116 807.85035654902458
leaf_count=388 56 1631 62 5868 303 969 161 52 197 506 44 49 292 143 733 219 272 75 58 1416 540 2935 41 477 309 805 174 206 127 1179
internal_value=0 0.662496 1.59722 0.307861 0.168085 0.201916 0.115305 0.7203 0.384748 0.931455 0.577284 0.399537 0.348507 0.678602 0.293201 1.00465 0.858348 0.00480465 0.373929 0.355378 0.512123 0.219892 0.286007 0.875984 -0.161973 0.229029 0.00782614 0.686643 0.43599 -0.233136
internal_weight=0 2701.14 225.672 17184.1 6098.14 5936.89 4966.92 759.846 11085.9 698.296 2475.47 10964.5 9269.47 1695.01 776.806 918.204 836.749 257.789 9066.42 8924.8 4137.79 4787.01 2551.93 1585.86 1435.53 2472.44 1580.57 414.075 693.057 1166.5
internal_count=20287 1793 118 18494 7859 7556 6587 719 10635 558 1675 10438 8947 1491 876 615 566 294 8559 8501 3841 4660 2697 1144 1725 2656 1851 380 604 1471
shrinkage=0.1


Tree=12
num_leaves=31
num_cat=0
split_feature=165 119 132 95 88 51 122 47 0 119 50 38 41 128 157 49 132 126 94 65 117 0 123 155 125 52 52 59 117 0
split_gain=220.282 215.187 319.58 313.102 242.521 235.991 234.973 374.358 339.773 239.665 232.146 243.882 216.111 203.625 200.966 196.359 187.795 183.473 208.29 337.998 267.78 218.999 200.613 299.372 235.793 394.393 227.905 310.622 249.492 209.509
threshold=1.0000000180025095e-35 -1.1138538747912703 -0.025141981894112882 1.0000000180025095e-35 1.0000000180025095e-35 2.1679502792895398 0.064631978692245282 -0.3710816218985587 -0.37782841012244706 -0.21051380435034484 -0.43390114116590317 0.23780800002412364 0.26054798363279846 -0.073514817735370275 1.0000000180025095e-35 0.56931740617508564 0.024981854959381818 -0.81830334303048413 1.0000000180025095e-35 -0.031990397689701473 -0.42104916149921717 -0.38240331397679628 1.2182021906164364 1.0000000180025095e-35 0.28808297010399836 2.0523442154121851 0.11639927148922945 -0.0034317974562365927 -1.4787221198876279 -0.38332878857052438
decision_type=2 2 2 2 2 2 2 2 2 2 2 2 2 2 2 2 2 2 2 2 2 2 2 2 2 2 2 2 2 2
left_child=1 12 6 4 5 17 8 -8 14 13 11 -5 16 -9 -3 -10 -1 -4 22 -20 -21 -22 23 26 25 -24 27 29 -28 -19
right_child=-2 2 3 10 -6 -7 7 9 15 -11 -12 -13 -14 -15 -16 -17 -18 18 19 20 21 -23 24 -25 -26 -27 28 -29 -30 -31
leaf_value=0.058662718900323464 -0.056044171470446304 -0.08845883481727386 0.20167652075024797 0.14095179235141217 0.069113559020909307 -0.095020218804689985 0.072332657116602722 0.17322451743757358 0.081245951911400313 -0.13649754580582468 -0.21216381012448249 -0.17826457045737273 -0.18554178402990693 -0.038141667325247597 0.11954583245652042 -0.37534533341268511 -0.27048915207140078 -0.13113539553216724 -0.10928527102357065 -0.2152730215681038 0.31585462037010387 0.033967430774433247 -0.071554101493167557 -0.063752330183926884 0.06152763253704524 0.086290931142782107 -0.12267353657433058 -0.12809753730901102 0.02867440693779752 0.061752198170750276
leaf_weight=3797.823578517884 277.67188094556332 719.63487707078457 63.380471840500832 58.683614328503609 1880.2668498009443 148.15110604465008 645.1149046048522 61.535703375935555 225.84273685514927 179.38473082333803 88.366949781775475 40.417717531323433 37.044689498841763 175.76269415020943 49.65394401550293 9.8287285119295102 17.41320663690567 56.942290410399437 270.25002554059029 40.715502209961414 29.516449391841888 415.98008663207293 640.70400667190552 271.36171643435955 387.76589991897345 210.23702849447727 112.23792225122452 89.694764271378517 3683.3637903109193 5080.3610806427896
leaf_count=2794 362 1294 38 20 1552 538 627 40 172 397 197 47 131 197 28 22 37 111 514 100 26 352 955 367 488 107 262 231 4099 4167
internal_value=0 0.336564 0.284404 0.340202 0.358183 0.303747 -0.0819137 0.246119 -0.4285 -0.4927 -0.943186 0.107618 0.548265 0.166694 -0.750331 0.622037 0.571604 0.320112 0.310586 -0.196264 0.302085 0.526439 0.346988 0.397372 -0.0310415 -0.325563 0.428498 0.563931 0.24199 0.596142
internal_weight=0 19487.4 15635.2 13568.4 13380.9 11500.7 2066.76 1061.8 1004.96 416.683 187.468 99.1013 3852.28 237.298 769.289 235.671 3815.24 11352.5 11289.1 756.462 486.212 445.497 10532.7 9293.96 1238.71 850.941 9022.6 5227 3795.6 5137.3
internal_count=20272 19910 16948 14171 13907 12355 2777 1261 1516 634 264 67 2962 237 1322 194 2831 11817 11779 992 478 378 10787 9237 1550 1062 8870 4509 4361 4278
shrinkage=0.1


Tree=13
num_leaves=31
num_cat=0
split_feature=49 60 51 49 126 75 38 128 49 123 123 77 116 125 126 17 38 130 61 38 156 125 128 52 126 59 132 47 50 123
split_gain=224.886 193.245 273.522 197.7 196.493 174.783 160.73 157.201 150.258 262.397 143.108 141.727 139.624 267.31 234.226 230.694 210.613 210.23 203.875 219.852 354.003 183.746 177.659 295.085 265.623 193.002 166.546 165.647 161.838 154.829
threshold=0.80767562003318327 0.0029785847558410944 -0.43309378595654174 0.8841359821409106 -0.097960233426906601 1.0000000180025095e-35 0.74842762322927914 0.5409535492163563 1.6713372001164204 -1.0718419520891023 0.67295358521035553 1.0000000180025095e-35 0.89314036924383611 1.3686269390542856 -0.17625839751425199 1.0000000180025095e-35 -0.63437246557952298 0.28848598971426981 0.0025772180649154069 0.56622027702967503 1.0000000180025095e-35 -0.6844066019512598 -0.026248020277545175 2.349902005686237 -0.52077031949857167 -0.023766252554674631 -0.010471590619919311 -0.35919154760564326 1.0000000180025095e-35 -0.85374250992667011
decision_type=2 2 2 2 2 2 2 2 2 2 2 2 2 2 2 2 2 2 2 2 2 2 2 2 2 2 2 2 2 2
left_child=5 3 -3 4 10 7 8 11 9 -5 -2 12 -1 14 16 17 -14 27 19 22 21 -21 24 25 -18 26 -24 28 -16 -19
right_child=1 2 -4 6 -6 -7 -8 -9 -10 -11 -12 -13 13 -15 15 -17 18 29 -20 20 -22 -23 23 -25 -26 -27 -28 -29 -30 -31
leaf_value=0.029181370277221522 -0.21830914481636443 -0.58045305949355352 -0.024032258222443228 -0.28787944379955299 0.24499760049587113 0.091502083620627325 -0.42072141754216208 -0.067855567940766359 0.07275587912873277 0.028046208230920935 0.1270039722563526 0.13543072245544574 -0.18039941125143832 0.16450054497232872 0.10114365432722974 -0.28053953807985682 -0.17340941808080249 0.096452304714201464 0.16860668332567835 -0.030605208525832775 0.1733237272870857 -0.1574371400563932 -0.15990934164333345 0.084318255036042428 0.072840976033234348 -0.014413102018933616 0.065570548874801168 0.0090711352777065098 0.5375879073424128 -0.039578289102471721
leaf_weight=13149.677127402276 17.917664781212807 10.072318062186239 71.892181098461151 27.691158697009087 111.52110451459885 396.07275351136923 7.0571852326393119 183.10850889608264 1601.4624092131853 519.54477645456791 36.348327770829201 116.05547155439854 78.563575867563486 103.5488058924675 477.32735560834408 22.712538212537766 48.473605282604694 107.15751960873604 59.663149744272232 202.11871188879013 51.798385545611382 262.66972120851278 216.08124947920442 188.49584440886974 454.68984898924828 401.01399685442448 38.611517906188965 252.52294059842825 8.6501283496618253 381.77070115506649
leaf_count=13995 48 29 63 66 39 220 24 401 814 473 20 75 162 61 238 63 139 80 22 307 20 607 434 123 439 433 34 290 20 537
internal_value=0 0.584975 -0.924088 0.638254 1.69055 0.258417 0.557328 0.242942 0.572976 0.120598 0.129877 0.253093 0.24535 0.0632879 0.0129284 0.352548 -0.199127 0.410983 -0.133581 -0.191826 -0.746476 -1.02283 0.020829 -0.259509 0.491178 -0.5765 -1.25727 0.747725 1.08912 -0.0976471
internal_weight=0 2403.51 81.9645 2321.54 165.787 17200.8 2155.76 16804.7 2148.7 547.236 54.266 16621.6 16505.5 3355.87 3252.32 1250.14 2002.18 1227.43 1923.62 1863.95 516.587 464.788 1347.37 844.203 503.163 655.707 254.693 738.5 485.977 488.928
internal_count=20276 1576 92 1484 107 18700 1377 18480 1353 539 68 18079 18004 4009 3948 1228 2720 1165 2558 2536 934 914 1602 1024 578 901 468 548 258 617
shrinkage=0.1


Tree=14
num_leaves=31
num_cat=0
split_feature=49 128 126 75 124 117 117 53 120 24 61 38 49 52 116 58 6 161 63 125 125 49 65 123 42 125 66 73 2 2
split_gain=216.643 170.236 157.242 149.102 151.47 268.164 240.08 266.303 218.426 222.755 233.159 221.369 274.96 228.701 215.94 215.401 211.022 212.887 197.444 192.272 187.575 230.581 261.602 218.694 200.682 172.179 170.309 166.512 181.333 198.181
threshold=2.4173674538800767 1.0165756986357217 -0.58340885076844795 1.0000000180025095e-35 -0.24650664129258151 -1.4787221198876279 -0.94988564069342252 -0.28942515855530732 0.96718104035038632 1.0000000180025095e-35 -0.0056541096714887032 -0.56631911940858648 0.43744649824839782 1.8332187774658049 1.5601010144756264 -0.026883612982415105 1.0000000180025095e-35 1.0000000180025095e-35 -0.071897880378005999 -0.57635220505623119 1.0444637483691994 0.62101327853132238 -0.019373266573198902 0.56390386412913951 -0.32351953455382559 1.1525181452642281 -0.054066046202668479 1.0000000180025095e-35 -0.99756432260347838 -0.90192258404086245
decision_type=2 2 2 2 2 2 2 2 2 2 2 2 2 2 2 2 2 2 2 2 2 2 2 2 2 2 2 2 2 2
left_child=1 3 -2 4 16 26 -7 8 9 11 25 13 27 -8 19 20 17 18 -1 -10 21 23 24 -9 -23 -11 -6 28 -13 -30
right_child=2 -3 -4 -5 5 6 7 15 14 10 -12 12 -14 -15 -16 -17 -18 -19 -20 -21 -22 22 -24 -25 -26 -27 -28 -29 29 -31
leaf_value=-0.12745879119287679 0.17408798497303885 -0.2108628408536713 0.054679546162679796 0.083904485156522712 0.11537082003380641 0.051613920026981543 -0.10247252318780789 -0.027052007913847199 0.071926548559964151 0.11145578116357811 -0.26210419173895733 0.16229654153730277 -0.12412664947610362 0.081656507155142735 -0.15146050414362131 0.020488900043363782 -0.16364382574305036 -0.14815782942751204 0.03581435430430599 -0.11081917677458003 -0.13874416189232605 0.12255440579485231 -0.24066967092411523 -0.14514818581790787 -0.21710185828142056 -0.20889669526904109 -0.098116407212766488 0.048161832481477804 -0.087022854551658424 0.015031205286862909
leaf_weight=74.745655484497547 123.90717139840126 31.168637312948704 1002.7667992264032 393.8841031268239 42.488325774669647 1608.9886600375175 260.74845383688807 1146.2211690433323 158.86242647469044 512.97722971439362 18.296717897057533 66.800045296549797 114.84666791558266 90.997895419597626 134.69296800345182 1038.2934831306338 54.986390292644501 64.429759100079536 8135.1919849738479 90.298290647566319 164.23103445023298 210.6708602681756 25.913365483283997 181.65811348706484 18.960748463869095 17.344680473208427 310.03883660584688 2403.584205634892 243.70763207226992 868.03419527038932
leaf_count=274 46 181 566 229 29 1419 361 1643 119 265 37 63 178 46 313 1374 82 121 7745 164 430 137 76 393 40 22 576 2096 353 894
internal_value=0 0.226445 0.678116 0.23039 0.217114 0.13237 0.164563 0.0917325 0.230209 0.290718 0.888694 0.20969 0.281815 -0.548378 -0.494486 -0.15586 0.316094 0.329069 0.343279 0.056977 -0.370184 -0.264675 0.605203 -0.432079 0.945089 1.00978 -0.723859 0.330647 0.0227475 -0.0734031
internal_weight=0 18483.1 1126.67 18451.9 18058 9728.66 9376.13 7767.14 4981.19 4597.34 548.619 4048.72 3696.97 351.746 383.854 2785.95 8329.35 8274.37 8209.94 249.161 1747.66 1583.42 255.545 1327.88 229.632 530.322 352.527 3582.13 1178.54 1111.74
internal_count=20272 19660 612 19479 19250 11028 10423 9004 4911 4315 324 3991 3584 407 596 4093 8222 8140 8019 283 2719 2289 253 2036 177 287 605 3406 1310 1247
shrinkage=0.1


Tree=15
num_leaves=31
num_cat=0
split_feature=49 153 121 52 52 91 116 2 126 94 125 188 2 51 116 15 38 0 42 122 151 117 126 118 147 125 125 50 37 34
split_gain=209.595 161.018 204.823 153.883 178.26 350.029 304.303 289.305 256.974 249.666 227.578 251.744 221.553 207.298 321.703 242.94 242.373 218.379 274.958 273.934 206.652 201.741 193.763 244.719 228.155 213.801 353.359 284.698 250.097 211.451
threshold=2.4173674538800767 1.0000000180025095e-35 1.3148658201479122 3.7390440809330312 0.65107342588791572 1.0000000180025095e-35 0.89314036924383611 -0.8670239405102208 -0.56774921795097877 1.0000000180025095e-35 0.28808297010399836 1.323856371679615 1.2277350477022593 -0.22219832120685948 -0.77426124383563932 1.0000000180025095e-35 -0.5333900809387786 -0.38148495710462632 -0.41739642527978044 -0.74517032546089113 1.0000000180025095e-35 -0.42104916149921717 -0.53642995231604063 -0.4746558165710863 1.0000000180025095e-35 0.72030055768411316 0.071974176313940944 -0.43302203682393253 1.0000000180025095e-35 1.0000000180025095e-35
decision_type=2 2 2 2 2 2 2 2 2 2 2 2 2 2 2 2 2 2 2 2 2 2 2 2 2 2 2 2 2 2
left_child=1 3 -3 4 20 6 8 -8 9 10 12 -12 -6 -10 15 -15 -16 18 -18 -20 22 -22 23 25 29 26 27 -1 -28 -24
right_child=-2 2 -4 -5 5 -7 7 -9 13 -11 11 -13 -14 14 16 -17 17 -19 19 -21 21 -23 24 -25 -26 -27 28 -29 -30 -31
leaf_value=0.044741679643333754 0.066834526894584453 -0.19432618578495128 0.080106112782060007 0.061877591963070015 -0.090465702338970375 -0.38750149722942839 -0.1823925137725162 -0.022860660237466537 0.027140050059873796 0.25026936681826245 0.019801120842888424 0.23816819846826323 0.14140375136773983 0.035518957405986568 -0.33684076152577397 -0.47491559077230738 -0.26061318148651003 0.010144176710520264 -0.33858095151471934 -0.0067929940372911564 -0.17300528390105224 0.15675386260560761 0.03332410490811643 -0.036936221328935141 -0.060473620717447177 -0.079681899609709284 0.15063591360222744 -0.10192483354732809 -0.076005920635499935 -0.14202780704696175
leaf_weight=415.4093854278326 1095.8821807205677 74.986752688884735 42.672810032963753 944.06328488886356 142.56100685894489 22.978682562708855 144.89637060463428 527.53342168033123 1645.4712134599686 75.88006854057312 109.313192486763 102.10863174498081 57.964020289480686 521.2196039557457 35.12566065788269 9.4942193478345853 95.931523874402046 219.93644002079964 29.097531095147133 171.85535170137882 20.570155099034309 189.13157630711794 10541.953128185123 1072.0649587698281 272.59556915611029 156.16823209822178 345.91082461178303 194.2320277094841 56.664543449878693 69.219932042062283
leaf_count=298 611 169 22 645 156 93 388 779 1499 25 86 27 21 390 144 37 355 235 143 225 36 63 10884 1650 307 220 198 319 62 185
internal_value=0 0.218117 -0.94795 0.225659 0.204139 0.0164209 0.0394176 -0.572369 0.167337 0.835818 0.528782 1.25264 -0.234412 0.0478035 -0.292028 0.263875 -0.826547 -0.65379 -1.21328 -0.548352 0.259204 1.24407 0.243468 -0.0243389 0.298596 0.292241 0.460265 -0.0198634 1.18735 0.321802
internal_weight=0 18307 117.66 18189.4 17245.3 3911.37 3888.39 672.43 3215.96 487.827 411.947 211.422 200.525 2728.13 1082.66 530.714 551.947 516.821 296.884 200.953 13333.9 209.702 13124.2 2240.45 10883.8 1168.39 1012.22 609.641 402.575 10611.2
internal_count=20272 19661 191 19470 18825 4603 4510 1167 3343 315 290 113 177 3028 1529 427 1102 958 723 368 14222 99 14123 2747 11376 1097 877 617 260 11069
shrinkage=0.1


Tree=16
num_leaves=31
num_cat=0
split_feature=165 2 116 51 53 185 34 126 118 50 184 117 116 38 38 126 51 47 174 58 125 25 51 139 61 63 88 50 2 17
split_gain=174.658 183.583 164.946 257.642 207.721 182.507 179.942 214.726 221.631 174.648 161.029 155.743 411.476 291.862 263.822 336.517 155.796 152.348 147.858 143.879 143.848 135.092 258.699 132.602 179.989 155.942 147.069 173.473 342.481 292.144
threshold=1.0000000180025095e-35 -0.15785564491518625 -1.1077415664515342 2.1679502792895398 -0.28263239523559242 1.0000000180025095e-35 1.0000000180025095e-35 -0.59906848358591691 1.0000000180025095e-35 -0.42217974993962759 1.0000000180025095e-35 -1.4787221198876279 1.0000000180025095e-35 0.58553864626529573 0.58114810780265469 -0.3328547256889427 -0.29249680945675355 1.6264508593112381 1.0000000180025095e-35 -0.02612085909377997 -0.90051539574131723 1.0000000180025095e-35 0.58623429366692248 1.0000000180025095e-35 -0.0088356023198325768 -0.06242503431444895 1.0000000180025095e-35 -0.43419417594656007 1.1857853010337263 1.0000000180025095e-35
decision_type=2 2 2 2 2 2 2 2 2 2 2 2 2 2 2 2 2 2 2 2 2 2 2 2 2 2 2 2 2 2
left_child=2 19 5 6 -5 17 10 8 9 -8 11 12 13 14 15 16 18 21 20 -2 -4 -1 -23 26 25 -25 27 28 -13 -29
right_child=1 -3 3 4 -6 -7 7 -9 -10 -11 -12 23 -14 -15 -16 -17 -18 -19 -20 -21 -22 22 -24 24 -26 -27 -28 29 -30 -31
leaf_value=0.048718535744382577 -0.14701419961427134 0.065765162678327202 -0.15110503200606484 0.014091836599336658 -0.16740115266611863 -0.19736982149904481 0.15871681764824447 -0.16222128957031104 -0.12028920635666768 -0.122208889999357 -0.19114709071414587 0.056785241121460377 -0.14584744809888869 -0.16798057023549071 0.30303448941108785 -0.19475334928752719 -0.25346287131478179 -0.19706739397667949 -0.1729422551604832 0.093509293319789563 0.1205472585439414 0.066738729168322256 -0.23475173070263963 0.12916877360678164 0.12065626741567566 -0.12019290052737625 0.052545883799540741 0.017842181574275192 -0.09679804317743175 -0.13459654670511564
leaf_weight=3605.6159371584654 164.37233167141676 84.860397040843964 20.974026277661324 119.34093359485269 133.71984362602234 31.695586979389191 93.907543554902077 116.86719682812691 81.343399055302143 28.952902644872665 35.506505161523819 2145.0759028941393 198.44316728413105 67.96612124145031 39.003777965903282 56.779951006174088 14.365177899599074 26.118877097964287 21.042672425508499 29.304285764694214 276.03938423097134 67.372250229120255 49.277745053172112 29.022993341088295 52.316961169242859 184.5265721231699 1779.1651354581118 9490.2609418779612 155.73535073548555 127.40819336101413
leaf_count=2719 289 63 33 164 596 56 92 294 218 55 75 1750 438 185 20 127 57 58 32 20 133 77 180 20 22 326 1459 10210 244 261
internal_value=0 -0.568829 0.228808 0.182505 -0.818109 0.415826 0.199369 -0.54121 0.0774555 0.925148 0.215552 0.220704 -0.241454 0.245293 0.550851 0.302368 0.686668 0.436032 0.83216 -1.10622 1.01364 0.452919 -0.606232 0.243694 -0.455776 -0.863028 0.25727 0.217236 0.463896 0.158228
internal_weight=0 278.537 19047.8 15267.8 253.061 3780.08 15014.7 321.071 204.204 122.86 14693.6 14658.1 694.614 496.171 428.205 389.201 332.421 3748.38 318.056 193.677 297.013 3722.27 116.65 13963.5 265.867 213.55 13697.6 11918.5 2300.81 9617.67
internal_count=20273 372 19901 16811 760 3090 16051 659 365 147 15392 15317 1025 587 402 382 255 3034 198 309 166 2976 257 14292 368 346 13924 12465 1994 10471
shrinkage=0.1


Tree=17
num_leaves=31
num_cat=0
split_feature=152 51 0 49 117 47 163 123 2 82 119 2 125 47 66 130 59 130 47 130 36 1 171 50 88 58 1 15 123 38
split_gain=159.518 303.126 166.907 153.809 223.009 166.755 189.95 178.578 167.991 161.089 139.775 210.689 149.308 161.114 177.912 162.988 181.99 129.575 236.856 176.38 297.734 251.557 180.399 171.423 170.392 172.787 204.721 238.31 197.41 211.612
threshold=1.0000000180025095e-35 -0.22219832120685948 -0.38323627722636544 0.27106008273056992 -1.4787221198876279 -0.34135643616627004 1.0000000180025095e-35 1.3272519116976527 -1.0083050233833195 1.0000000180025095e-35 -1.1138538747912703 -0.84260122164158946 -1.0085697926363457 -0.28785110184815049 0.10477978383813093 1.0000000180025095e-35 -0.019505800107122325 0.81996642709637391 -0.31757628758043915 0.23533794597605942 1.0000000180025095e-35 -0.05516981019117171 1.0000000180025095e-35 -0.42745437599145159 1.0000000180025095e-35 -0.027642776255431507 -0.055643841956320016 1.0000000180025095e-35 0.56390386412913951 0.58027000011012642
decision_type=2 2 2 2 2 2 2 2 2 2 2 2 2 2 2 2 2 2 2 2 2 2 2 2 2 2 2 2 2 2
left_child=3 2 -2 5 -5 -1 8 -8 -7 17 -6 12 -12 15 -15 -14 -17 19 -19 22 21 -21 24 -20 25 26 -10 28 29 -28
right_child=1 -3 -4 4 10 6 7 -9 9 -11 11 -13 13 14 -16 16 -18 18 23 20 -22 -23 -24 -25 -26 -27 27 -29 -30 -31
leaf_value=0.020709371023673775 -0.23209468677786138 -0.24511105910181985 0.10290016318664624 -0.13547207601589326 0.081346829615800045 -0.17077285565915346 -0.20692151527281955 0.058999417957970049 0.030701967906903702 -0.18084257386896785 0.050203910650321738 0.049501085540842961 -0.084105188876006043 -0.16299907688634119 0.028539095693213914 0.075031561166692781 -0.52967273252644931 -0.26457988497080154 0.19997439925259397 -0.12574527208402161 -0.17976045221070722 0.0078738823282667961 -0.16281941549928139 0.040487141418980285 0.086169512505935242 0.032000067193355929 0.042913406509107264 -0.13303207274896869 -0.15398503912653158 -0.17765584544156932
leaf_weight=10519.003515448421 15.352709934115408 28.12779338657856 476.02979257702827 73.230115689337254 681.51989085972309 56.019196048378944 83.316179163753986 36.237186327576637 477.9937323667109 46.939953610301018 267.64383094012737 1834.2083603739738 128.48792174458504 160.02430321276188 69.58101013302803 197.87210282683372 5.1053501665592185 22.830380618572235 79.277334526181221 172.06233161687851 126.28979920968413 777.85236503556371 57.913390949368477 449.56856789439917 304.31439878046513 1321.4693919233978 355.74386810138822 248.56810620427132 82.235783882439137 49.555161185562611
leaf_count=10529 48 91 276 154 344 102 206 30 601 61 215 1406 151 347 68 122 20 59 42 652 354 968 129 601 243 1397 292 441 196 127
internal_value=0 0.74158 0.924336 0.179805 0.371565 0.136878 -0.0186772 -1.2632 0.0134676 0.034554 0.409364 0.305942 -0.112527 -0.405689 -1.04954 0.0403055 0.598219 0.0536693 0.507811 -0.00937533 -0.355074 -0.163292 0.119013 0.643953 0.154643 0.0697843 -0.202561 -0.533461 -0.127184 0.159448
internal_weight=0 519.51 491.383 18684.9 3417.67 15267.2 4748.19 119.553 4628.63 4572.61 3344.44 2662.92 828.715 561.071 229.605 331.465 202.977 4525.67 551.676 3974 1076.2 949.915 2897.79 528.846 2839.88 2535.57 1214.1 736.103 487.535 405.299
internal_count=20272 415 324 19857 2827 17030 6501 236 6265 6163 2673 2329 923 708 415 293 142 6102 702 5400 1974 1620 3426 643 3297 3054 1657 1056 615 419
shrinkage=0.1


Tree=18
num_leaves=31
num_cat=0
split_feature=49 50 65 38 52 47 2 119 121 132 51 33 130 116 122 123 123 122 33 47 30 126 151 64 52 102 2 0 124 51
split_gain=197.837 158.122 158.031 183.471 144.47 174.003 208.146 267.099 192.829 179.22 170.316 426.819 165.831 197.497 165.44 156.743 218.795 330.16 216.184 201.265 216.49 208.968 190.591 191.23 186.542 180.645 289.015 214.635 156.084 155.218
threshold=0.48883281448274091 -0.43478024550787386 -0.067443863577146101 -1.2101793651945283 3.7390440809330312 -0.3294663618733546 -0.73917736761576591 -1.4149672316049122 0.9658451716424542 0.004198800654274258 -0.46824303008148876 1.0000000180025095e-35 0.76681838335816355 -0.44078092121974427 -0.84639561348003323 -1.0718419520891023 -0.63564306776423785 -0.94762090149917533 1.0000000180025095e-35 -0.34730147331272782 1.0000000180025095e-35 -0.48945105386363347 1.0000000180025095e-35 -0.068399228613340204 0.15642402860489671 1.0000000180025095e-35 -0.99694843032939318 -0.38180908262568203 0.30206241820093788 -0.46824303008148876
decision_type=2 2 2 2 2 2 2 2 2 2 2 2 2 2 2 2 2 2 2 2 2 2 2 2 2 2 2 2 2 2
left_child=4 -2 -3 -4 5 9 7 14 -9 15 11 -6 13 -8 -7 19 17 18 -17 -1 21 -21 23 -18 -20 -25 27 -27 -10 -19
right_child=1 2 3 -5 10 6 12 8 28 -11 -12 -13 -14 -15 -16 16 22 29 24 20 -22 -23 -24 25 -26 26 -28 -29 -30 -31
leaf_value=0.031446462213706609 -0.074692150929300288 -0.14970323814964259 0.18733877765590584 0.04524410997831696 -0.53307266409742338 -0.1836923512101023 0.035097625717883427 -0.02880864156924345 -0.21213440346644186 -0.099788383945447437 0.075473335958083143 0.021761820006532887 0.064318918571137737 -0.027547195018980883 0.081427041692793245 -0.12772012091585802 0.22891278796255934 -0.1231254055993484 0.095803421116013129 0.32617014329907479 -0.078692880980808108 0.10424477274482276 0.11251396847818627 0.017798863854685751 -0.074311055805066986 0.28041989120917643 -0.11057605984299908 -0.34984910907651362 -0.058469978451603677 -0.0031142081367017713
leaf_weight=2749.3100647591054 110.59143504500389 40.10490770637989 94.220504894852638 2554.0950690060854 16.15882571041584 25.731671251356602 937.13574956357479 1497.2008250169456 110.04461024701595 126.59889946877956 658.32278044521809 97.666975408792496 529.39898947626352 1086.9862087406218 276.01276053488255 73.301852695643902 41.824487112462521 358.9815036803484 303.26539847999811 59.011422492563725 43.417253151535988 150.99451838433743 210.04118789732456 6328.1359303705394 81.860313937067986 33.926453307271004 225.1297617033124 6.4266826659440985 165.53459513559937 154.00441440939903
leaf_count=2558 162 53 30 1934 59 59 1102 2079 266 213 338 115 610 1881 188 137 22 566 169 38 60 75 99 6412 142 20 416 21 256 192
internal_value=0 0.424953 0.473159 0.502995 0.137231 0.116298 -0.0462593 -0.281545 -0.429582 0.185028 0.559444 -0.57003 0.144891 0.0145634 0.588186 0.198869 0.12427 -0.319851 0.296854 0.393067 1.2458 1.66606 0.187294 0.157607 0.596448 0.144086 -0.664023 1.80043 -1.19831 -0.870966
internal_weight=0 2799.01 2688.42 2648.32 16346.4 15574.3 4628.05 2074.52 1772.78 10946.2 772.149 113.826 2553.52 2024.12 301.744 10819.6 7816.9 971.413 458.428 3002.73 253.423 210.006 6845.48 6635.44 385.126 6593.62 265.483 40.3531 275.579 512.986
internal_count=20272 2179 2017 1964 18093 17581 6441 2848 2601 11140 512 174 3593 2983 247 10927 8196 1206 448 2731 173 113 6990 6891 311 6869 457 41 522 758
shrinkage=0.1


Tree=19
num_leaves=31
num_cat=0
split_feature=52 165 124 157 123 118 125 52 126 52 119 132 174 121 128 123 117 2 94 60 2 116 61 1 52 0 65 37 132 118
split_gain=164.207 152.226 158.707 142.808 151.934 189.27 127.43 126.08 280.61 269.722 308.854 305.831 339.664 240.157 217.988 205.387 218.912 215.54 184.16 191.981 189.229 179.686 217.995 322.983 174.063 158.502 154.176 152.238 151.838 264.582
threshold=3.7390440809330312 1.0000000180025095e-35 -0.79507570078610079 1.0000000180025095e-35 1.0001027484540042 1.0000000180025095e-35 1.0000000180025095e-35 0.65107342588791572 -0.56774921795097877 2.0523442154121851 0.39171290927693897 -0.014139188438467705 1.0000000180025095e-35 1.0821853878109404 -0.067606468053142146 0.56390386412913951 0.63662379688919368 -0.99693691832427012 1.0000000180025095e-35 -0.016974985879764981 -0.99690238230890083 -1.7747022116833244 -0.012912760741620627 -0.060855782591830658 1.3124926444862151 -0.38321577078797447 -0.042937930544022604 1.0000000180025095e-35 -0.025141981894112882 -1.0778735011251883
decision_type=2 2 2 2 2 2 2 2 2 2 2 2 2 2 2 2 2 2 2 2 2 2 2 2 2 2 2 2 2 2
left_child=1 3 6 7 5 -5 -3 18 13 10 21 12 -12 24 -13 16 -16 -18 28 25 -21 -10 23 27 -9 -20 -14 -23 29 -1
right_child=-2 2 -4 4 -6 -7 -8 8 9 -11 11 14 26 -15 15 -17 17 -19 19 20 -22 22 -24 -25 -26 -27 -28 -29 -30 -31
leaf_value=0.030476286328088933 0.055976287480181124 0.076537399925148131 -0.14252726198446178 0.056248419626428209 0.15035599706505853 -0.21275493435283332 -0.16535818083895198 0.12380707169567103 0.071673876826200439 0.030549398346891993 -0.29001502353399933 0.079976421219597249 -0.26148072026386798 -0.13912178608689277 -0.28170424870427996 -0.2724216742711118 -0.51515012934249704 0.026217237235931709 0.031760161382441317 -0.12518127051080716 0.02563192251199066 0.0073901777332192921 -0.0086900081411746093 -0.31123840437298217 -0.010677858151282535 -0.13790796857320783 -0.012805101255304756 -0.36961260022163073 0.026205623409457125 -0.034306426679189921
leaf_weight=1286.3030028343201 933.56501404941082 90.108180999755859 127.61087577044964 222.66931487619877 155.35000284016132 29.636934295296669 28.718735955655575 349.61376419663429 235.99093011021614 1013.0244652181864 127.07412913441658 119.78274014592171 31.832721292972565 52.14425054192543 31.979875311255455 46.974147021770477 7.6892090290784827 168.86839957535267 74.538687512278557 97.015478476881981 584.11171640828252 108.82374440133572 1442.9073011279106 61.525111272931099 132.79684302955866 210.69397817179561 115.00097279250622 11.880429133772848 9905.4067239873111 1236.4304199665785
leaf_count=1197 608 72 227 160 80 88 41 139 121 843 480 57 109 72 77 152 29 169 92 204 593 129 1430 225 146 415 144 55 10204 1914
internal_value=0 0.129692 -0.650885 0.140463 0.725543 0.246502 0.180748 0.126796 -0.0276255 -0.130053 -0.305815 -0.899709 -1.70311 0.647497 -0.313346 -0.835167 -0.409648 0.026403 0.173579 -0.246923 0.0415104 -0.098652 -0.217057 -1.24765 0.867864 -0.935693 -0.667166 -0.297167 0.206275 -0.0127472
internal_weight=0 18106.5 246.438 17860.1 407.656 252.306 118.827 17452.4 4057.91 3523.35 2510.33 649.202 273.908 534.555 375.294 255.512 208.537 176.558 13394.5 966.36 681.127 1861.13 1625.14 182.229 482.411 285.233 146.834 120.704 12428.1 2522.73
internal_count=20272 19664 340 19324 328 248 113 18996 4377 4020 3177 1217 733 357 484 427 275 198 14619 1304 797 1960 1839 409 285 507 253 184 13315 3111
shrinkage=0.1


Tree=20
num_leaves=31
num_cat=0
split_feature=56 63 82 128 128 130 142 51 117 116 53 119 61 0 62 52 1 157 162 121 135 37 118 66 0 124 123 173 125 125
split_gain=222.839 137.435 135.585 125.11 175.224 145.658 130.325 214.498 149.251 311.257 184.324 153.505 279.572 280.117 185.98 170.314 164.67 164.581 154.348 144.177 142.253 141.616 171.218 136.931 168.463 166.067 132.718 127.718 131.349 132.376
threshold=1.0000000180025095e-35 -0.011162138176461502 1.0000000180025095e-35 0.51732015048744373 0.48777840207630302 -0.030402272714992611 1.0000000180025095e-35 0.79712975841660472 -1.4787221198876279 1.0000000180025095e-35 -0.28263239523559242 0.69282626609058096 -0.012944264766031053 -0.38311512365491868 -0.026814795566512291 4.2937306138895517 -0.04746959414504992 1.0000000180025095e-35 1.0000000180025095e-35 0.84950495547396832 1.0000000180025095e-35 1.0000000180025095e-35 1.3349972370912202 -0.041741562241655573 -0.38332462498612396 -0.24650664129258151 -0.52659334668302182 1.0000000180025095e-35 1.2605725421592566 1.1525181452642281
decision_type=2 2 2 2 2 2 2 2 2 2 2 2 2 2 2 2 2 2 2 2 2 2 2 2 2 2 2 2 2 2
left_child=1 -1 3 4 6 -5 8 -8 9 10 23 17 15 -14 16 -13 19 20 27 21 -10 -15 -23 24 -2 -25 -21 28 29 -16
right_child=2 -3 -4 5 -6 -7 7 -9 11 -11 -12 12 13 14 18 -17 -18 -19 -20 26 -22 22 -24 25 -26 -27 -28 -29 -30 -31
leaf_value=-0.11534709567273858 0.10282008420331612 -0.60141159281770529 -0.10969252183259548 -0.21642509842666532 0.12578664883156077 -0.016564465029878791 0.037798316568572493 -0.3436667100764037 0.01836194257882005 -0.15861348397903685 -0.1439224895203825 -0.1027464262070986 0.1080523350433653 -0.14155417340477947 0.010924544638203602 0.085249793652670797 -0.18931747973203958 0.087928778780904243 -0.20926393390081166 -0.19927239462299864 -0.15959168590333134 -0.21996298177514151 0.098968685163763059 0.095037814009605662 -0.15830275156028861 -0.052898031267918269 0.10456490135709076 -0.20623243734257454 0.11171120917321303 -0.20796770311094992
leaf_weight=17.525126427412037 36.778408125042915 8.7073683142662031 86.838449999690056 46.919835466891527 145.34650871157646 163.65668350085616 2714.1320062056184 14.821041241288183 11121.916283167899 153.79514721035957 75.0765132419765 381.92046162486076 249.38889233767986 139.19663225114346 2141.6133328638971 55.147828012704849 83.471804393455386 343.40142199397087 32.130270168185234 16.885762125253677 45.102870911359787 22.423933655023575 67.507920369505882 269.49551793932915 75.273397743701935 105.6209483332932 96.736986204981804 26.651235610246658 129.66695509850979 27.989113733172417
leaf_count=32 22 21 100 154 70 284 2549 62 11537 359 160 795 195 277 2186 31 213 222 62 44 72 59 37 158 151 153 65 52 86 64
internal_value=0 -2.76687 0.149737 0.155501 0.164191 -0.610966 0.155564 0.357266 0.120499 -0.325519 0.0193065 0.141816 -0.0425254 0.0652023 -0.0257405 -0.790257 -0.633644 0.197401 0.0841395 -0.326905 0.176432 -0.783627 0.194451 0.244078 -0.725952 0.533838 0.594109 0.114209 0.139438 0.0810071
internal_weight=0 26.2325 18868.9 18782.1 18571.5 210.577 18426.1 2728.95 15697.2 716.04 562.245 14981.2 3470.73 3033.66 2784.27 437.068 426.223 11510.4 2358.05 342.751 11167 229.128 89.9319 487.168 112.052 375.116 113.623 2325.92 2299.27 2169.6
internal_count=20272 53 20219 20119 19681 438 19611 2611 17000 1003 644 15997 4166 3340 3145 826 695 11831 2450 482 11609 373 96 484 173 311 109 2388 2336 2250
shrinkage=0.1


Tree=21
num_leaves=31
num_cat=0
split_feature=49 56 128 153 64 180 94 130 120 65 124 126 2 16 122 47 47 171 134 50 2 122 130 66 155 52 132 125 166 128
split_gain=140.237 153.039 123.937 119.605 180.234 117.307 114.264 191.632 244.214 242.941 239.365 167.473 160.249 138.062 189.308 137.753 109.909 151.792 143.522 380.451 142.734 136.758 163.78 181.076 162.29 162.505 234.067 214.646 223.921 194.088
threshold=4.3428065320584759 1.0000000180025095e-35 1.0165756986357217 1.0000000180025095e-35 -0.053662098967286423 7.9341503743120496 1.0000000180025095e-35 -0.24299444766783421 -0.19650542833320334 -0.031990397689701473 1.6186281609853845 -0.066640967791968445 -0.83647107891354511 1.0000000180025095e-35 -0.64394503744174914 -0.36513658475210103 -0.3294663618733546 1.0000000180025095e-35 1.0000000180025095e-35 -0.4362454194111583 -1.0083050233833195 0.87443428284538183 0.55422620840532189 -0.042868211804106285 1.0000000180025095e-35 0.57223678308432879 -0.019029318863198894 0.72030055768411316 1.0000000180025095e-35 0.0032937281335955219
decision_type=2 2 2 2 2 2 2 2 2 2 2 2 2 2 2 2 2 2 2 2 2 2 2 2 2 2 2 2 2 2
left_child=1 -1 3 5 -5 6 16 10 -9 -10 13 -11 15 14 -8 -13 18 20 21 -20 -18 22 24 -24 25 26 27 28 -3 -29
right_child=-2 2 -4 4 -6 -7 7 8 9 11 -12 12 -14 -15 -16 -17 17 -19 19 -21 -22 -23 23 -25 -26 -27 -28 29 -30 -31
leaf_value=-0.2359568060383137 0.067769431405095767 0.040098608876229486 -0.17614035061513236 0.087942625809314987 -0.18597926450082583 -0.29418950321267978 -0.16636279081223179 -0.17653732705689223 -0.11771113035402639 -0.089581265734895429 0.21435745433761821 0.075199025648358828 0.1203811826990159 -0.10424687912805962 0.05368777438021706 -0.2397573169008875 -0.15682748338986416 -0.09335920074473382 0.28838904089210221 -0.11930628735862395 0.0088263408110218905 0.00013465761969578925 -0.10797360635023741 0.0098170815520794586 -0.048210545729797237 0.011406802912649989 0.064250951905092404 -0.10175592784534421 -0.20240009950915339 0.026331208862391455
leaf_weight=24.842860981822014 463.50811134278774 2293.1675905250013 34.795248854905367 36.429426655173302 70.518267959356308 12.391316264867781 43.968105234205723 130.0349180996418 173.24953671731055 86.179887242615223 60.273475416004658 29.275065451860428 176.3124682456255 96.17706685885787 352.76708230376244 26.418262146413326 52.489775575697422 153.703314460814 26.508599922060966 167.63312971591949 5743.6425217688084 2092.0067111700773 165.33571945130825 619.57222081720829 239.4049027711153 2070.060185097158 2864.2921862155199 236.91149362176657 38.721126332879066 236.29141138494015
leaf_count=52 274 2343 157 20 149 40 119 230 330 117 23 20 64 140 288 73 119 217 21 264 6841 2192 337 649 329 1988 2205 369 87 216
internal_value=0 0.120741 0.124103 0.127689 -0.926737 0.133889 0.135986 -0.165655 -0.546725 -0.224268 0.262453 0.294548 0.736714 0.032429 0.293007 -0.742013 0.156829 0.0472515 0.215832 -0.636385 0.0732618 0.231073 0.285911 -0.149948 0.328788 0.353871 0.44143 0.236108 0.360719 -0.377963
internal_weight=0 18353.4 18328.5 18293.7 106.948 18186.8 18174.4 1174.66 621.47 491.435 553.186 318.186 232.006 492.912 396.735 55.6933 16999.7 5949.84 11049.9 194.142 5796.13 10855.8 8763.76 784.908 7978.85 7739.44 5669.38 2805.09 2331.89 473.203
internal_count=20273 19999 19947 19790 169 19621 19581 1404 834 604 570 274 157 547 407 93 18177 7177 11000 285 6960 10715 8523 986 7537 7208 5220 3015 2430 585
shrinkage=0.1


Tree=22
num_leaves=31
num_cat=0
split_feature=142 51 167 117 116 47 60 61 60 61 51 126 50 64 132 52 177 68 52 50 1 122 50 121 157 183 124 52 163 125
split_gain=127 231.176 187.705 183.415 254.542 160.697 153.943 134.367 263.698 239.194 244.96 138.099 225.508 139.192 174.39 129.336 128.765 125.059 147.868 153.474 277.135 119.208 118.468 192.847 118.1 146.468 131.584 118.808 293.93 219.987
threshold=1.0000000180025095e-35 0.79712975841660472 1.0000000180025095e-35 -1.4787221198876279 1.0000000180025095e-35 -0.37702665904501648 -0.017098897853025027 -0.012499799500206703 -0.017157473993609659 -0.012401029889879006 -0.53854151833138275 -0.37983362414134997 -0.43272900204327563 -0.05220989209875488 -0.016584253650833301 -0.18671751282866464 1.0000000180025095e-35 -3.1270933101088945 3.7390440809330312 -0.43478024550787386 -0.04148919761265555 -0.54271974942260703 -0.41485388042320537 -1.0119385032218062 1.0000000180025095e-35 1.0000000180025095e-35 1.3992005371879768 0.76306188771660088 1.0000000180025095e-35 0.50419176389405584
decision_type=2 2 2 2 2 2 2 2 2 2 2 2 2 2 2 2 2 2 2 2 2 2 2 2 2 2 2 2 2 2
left_child=2 7 3 4 5 6 -1 8 11 10 -9 12 -2 14 -14 -7 17 -5 24 20 -20 -12 -18 -24 25 27 -26 -19 -29 -30
right_child=1 -3 -4 16 -6 15 -8 9 -10 -11 21 -13 13 -15 -16 -17 22 18 19 -21 -22 -23 23 -25 26 -27 -28 28 29 -31
leaf_value=-0.11252202124954121 -0.15670419265872471 -0.2481743691135051 -0.29468153360970245 0.051150794059533079 -0.14264748844639519 -0.015498308691534207 0.073383958425698698 0.29728032521532516 -0.24933421871061548 0.039914297829298818 0.11138894687697345 0.056803987943056994 0.072395481441273044 -0.050812648403887939 -0.1883796365962821 -0.16954871700243254 0.080445733376435347 0.0070575687932938197 -0.0011592358958607426 0.06040679990363388 -0.51492377982953952 -0.18284677409769698 0.087558898846289215 -0.20561929304178378 0.069138442580930964 -0.20719962970221234 -0.24653266292938814 -0.0097628043728510278 -0.30724607896728612 -0.035230476074712296
leaf_weight=53.970703106373549 93.428460612893105 29.3851408213377 20.539273858070374 654.95374948903918 184.41727798432112 160.60160729661584 254.97567394375801 77.319929674267769 38.286588221788406 1332.8367122709751 66.715885207056999 503.32550642639399 313.59565752744675 220.77878560125828 27.927950337529182 82.493793711066246 435.17606676369905 10770.173536716029 59.073159702122211 763.68519832193851 12.768861904740332 17.350204929709435 49.517737299203873 41.024039834737778 376.80007721483707 33.299348622560501 13.684386625885962 2002.0733772814274 59.61027929186821 59.314307123422623
leaf_count=92 162 75 55 611 368 174 153 34 98 1178 25 429 255 325 74 194 293 12311 75 392 54 42 29 108 268 63 37 2045 173 80
internal_value=0 0.307903 0.0743033 0.0781652 -0.409313 -0.0695154 0.409075 0.338359 0.0887599 0.538366 1.68817 0.174053 -0.128363 0.110679 0.510707 -0.677749 0.101582 0.0843126 0.0645399 0.472615 -0.924733 0.506623 0.587928 -0.452787 0.0389328 0.0225627 0.580759 0.0279732 -0.188357 -1.71577
internal_weight=0 2720.95 16088.2 16067.6 736.459 552.042 308.946 2691.57 1197.34 1494.22 161.386 1159.06 655.731 562.302 341.524 243.095 15331.2 14805.4 14150.5 835.527 71.842 84.0661 525.718 90.5418 13315 12924.5 390.484 12891.2 2121 118.925
internal_count=20272 2697 17575 17520 981 613 245 2622 1343 1279 101 1245 816 654 329 368 16539 16109 15498 521 129 67 430 137 14977 14672 305 14609 2298 253
shrinkage=0.1


Tree=23
num_leaves=31
num_cat=0
split_feature=106 55 53 39 65 0 123 128 2 42 47 47 47 126 132 59 65 61 132 95 118 0 128 108 130 50 0 47 2 122
split_gain=147.016 135.54 144.395 234.837 198.311 190.777 181.329 157.693 140.421 169.33 132.416 157.737 278.661 148.011 128.927 127.01 141.688 122.234 119.27 190.697 163.651 148.572 323.274 144.39 141.457 141.145 245.625 200.669 175.44 177.249
threshold=1.0000000180025095e-35 1.3552809241096868 -0.2758396319158774 0.9739590083638735 -0.067236147195525703 -0.34880108059995557 0.34580442196670719 0.16872751923598345 0.55109967858507147 -0.41739642527978044 -0.35324651045918554 -0.34135643616627004 -0.18084043321191146 0.027316829112846001 -0.022696916681747285 -0.018722945637711933 -0.067958652997350585 -0.012724274228320733 -0.021474384075564488 1.0000000180025095e-35 -0.4746558165710863 -0.38309927404126726 -0.073514817735370275 1.0000000180025095e-35 -1.4653994536466732 -0.43419417594656007 -0.38279619671915732 -0.35324651045918554 1.1514737697643622 1.1781101469028081
decision_type=2 2 2 2 2 2 2 2 2 2 2 2 2 2 2 2 2 2 2 2 2 2 2 2 2 2 2 2 2 2
left_child=1 2 18 5 15 6 8 -8 9 -4 -11 -12 13 -13 -10 16 -5 -17 20 23 21 22 -1 24 -20 28 -27 -28 29 -23
right_child=-2 -3 3 4 -6 -7 7 -9 14 10 11 12 -14 -15 -16 17 -18 -19 19 -21 -22 25 -24 -25 -26 26 27 -29 -30 -31
leaf_value=0.062514925368455959 -0.14116426065666135 0.046939957973261739 -0.099490631177869493 -0.10936323536505244 0.050643794672280765 -0.25614943384540362 0.014566152120240603 -0.25315046528671775 -0.022912860321029481 -0.23685253658101435 0.12939296102627312 -0.29361126386763176 0.03545402245048828 -0.035298841616809538 -0.20588346824873782 -0.33449808501453826 0.080979289889982167 -0.075348139134682579 -0.28712742844641548 -0.085702388701151863 -0.018946792905991321 0.084548496203320209 -0.10159263013724776 -0.24276647661828277 0.022312300833424309 -0.11320084497950943 0.0025393937120706828 0.084512949433322701 -0.20534754282385964 -0.10667815392538899
leaf_weight=203.78784843534231 64.01138462126255 975.14403940737247 299.93842866271734 60.92316422984004 780.18542218394578 38.376013033092022 712.81546923518181 22.702760092914104 58.954137157648802 22.747428730130196 88.451721131801605 47.124516159296036 237.21455735713243 41.909440949559212 111.05591148883104 21.718050956726074 109.21491220779717 112.38165235519409 14.796746969223021 169.81253581494093 2378.3328910060227 675.59075796604156 292.07902452349663 20.671504877507687 9268.8973603285849 147.29573787003756 1293.0568127706647 388.30818212777376 23.752216145396233 52.218198746442795
leaf_count=180 111 672 547 266 936 115 752 69 100 60 33 138 203 40 262 67 181 321 50 226 3204 510 431 40 8960 258 1159 264 50 67
internal_value=0 0.106446 0.0864434 -0.123434 0.239395 -0.357457 -0.305974 0.0630272 -0.605079 -0.41619 -0.0193895 0.109467 -0.211662 -1.7202 -1.42435 -0.445408 0.128213 -1.17319 0.125326 0.193146 0.00752372 0.159831 -0.341489 0.212313 0.218191 0.256175 0.106234 0.21471 0.621003 0.708285
internal_weight=0 18669.5 17694.3 2765.71 1084.42 1681.29 1642.91 735.518 907.396 737.386 437.448 414.7 326.249 89.034 170.01 304.238 170.138 134.1 14928.6 9474.18 5454.42 3076.09 495.867 9304.37 9283.69 2580.22 1828.66 1681.36 751.561 727.809
internal_count=20272 20161 19489 4090 1771 2319 2204 821 1383 1021 474 414 381 178 362 835 447 388 15399 9276 6123 2919 611 9050 9010 2308 1681 1423 627 577
shrinkage=0.1


Tree=24
num_leaves=31
num_cat=0
split_feature=153 121 1 106 130 48 55 47 47 124 126 132 41 103 175 124 119 118 61 1 69 152 51 124 50 16 121 51 102 122
split_gain=129.527 140.459 121.753 112.673 111.209 107.941 116.224 124.148 172.408 147.134 123.31 120.406 120.108 122.76 115.42 176.172 120.972 116.87 114.082 103.811 112.188 100.982 226.947 102.981 171.779 256.542 172.777 170.558 157.871 146.924
threshold=1.0000000180025095e-35 1.3148658201479122 -0.073194528363565589 1.0000000180025095e-35 5.1781060136296277 7.1482132472455193 0.053537996622321123 0.015345792621193526 0.33043276138345318 -0.57564807698869302 -0.61472811640338609 -0.023919449287930085 -0.39848633452244953 1.0000000180025095e-35 1.0000000180025095e-35 -0.90478951268480456 0.69282626609058096 -0.4746558165710863 -0.012464563268787433 -0.054323175526046326 -4.4555222278023949 1.0000000180025095e-35 -0.32764605358170057 0.082634794403530096 -0.42598920208816715 1.0000000180025095e-35 1.3148658201479122 0.41048807304218721 1.0000000180025095e-35 -0.44149446140346499
decision_type=2 2 2 2 2 2 2 2 2 2 2 2 2 2 2 2 2 2 2 2 2 2 2 2 2 2 2 2 2 2
left_child=2 -2 -1 4 5 6 7 14 9 -9 -8 -10 -11 18 21 17 -17 -16 -14 -13 -21 23 -23 -4 -25 28 27 -27 29 -26
right_child=1 -3 3 -5 -6 -7 10 8 11 12 -12 19 13 -15 15 16 -18 -19 -20 20 -22 22 -24 24 25 26 -28 -29 -30 -31
leaf_value=-0.080585612763964962 -0.17092105857894213 0.06587108208036388 0.018354253993269121 -0.11749628072644321 -0.19984891162575566 -0.2274422571194743 -0.11446174290813778 -0.19798534408163704 -0.1657301391627152 -0.090883057150982091 0.042680143407967011 -0.069903070362975009 -0.16022427672187606 -0.18526223169906633 0.076805977663497019 -0.18203020656028307 0.0002900602513707663 -0.18642787614731171 0.12223213260667641 -0.30050839823377484 0.043396581199934822 0.082667668581045725 -0.15562076579516504 0.016591521499331588 -0.03094457326204832 -0.088213289307065818 0.03744970412947652 -0.3034326848238787 -0.12364255896299481 0.020476740774595468
leaf_weight=148.59400245733559 79.569633901119232 36.56059867143631 8274.7998720426112 68.73207464069128 25.032824628055096 18.954699218273163 51.651400469243526 77.831288844347 37.693080119788647 217.03322966396809 1503.6019777469337 110.13626340404153 17.074386473745108 21.634871982038021 109.06674808263779 107.63868182897568 54.982272952795029 19.951564118266106 87.97787769138813 9.6657902002334577 509.23707043379545 404.10076250135899 44.35575632750988 3527.1293436251581 860.34552239812911 363.66645633801818 98.883003026247025 40.970445245504379 103.84121480584145 1568.9939884580672
leaf_count=521 154 23 8372 104 62 41 55 201 121 339 1246 357 38 82 74 250 51 42 54 46 460 271 97 3512 1104 563 100 139 197 1596
internal_value=0 -0.963732 0.0956852 0.102992 0.1078 0.110691 0.113172 0.0887759 -0.237764 -0.738325 0.374613 0.0787236 -0.457197 0.316517 0.111587 -0.511594 -1.20388 0.360991 0.763238 0.182749 0.369905 0.123476 0.590991 0.109346 0.0158098 -0.158538 -0.810471 -1.10005 -0.0289531 0.0226599
